[[[13.715687363116697, -28.82351383649601, 13.792701187625065, 13.792701187625065], [-45.004135891725355, -14.152915169780721, 15.846060867225281, 15.846060867225281], [17.858531366967064, -28.40277315586338, 13.634309999762246, 13.634309999762246], [-53.7095899685545, -43.324238036733846, 70.72728488651232, 70.72728488651232], [29.10581706014816, -41.94427841800521, 0.47199542603601236, 0.47199542603601236], [44.63072832862366, -39.4213284855138, -21.026888823511413, -21.026888823511413], [-42.74945559609587, -38.79983888006467, 52.725454822406554, 52.725454822406554], [41.506888734474344, -57.42755619863763, 29.67227223708496, 29.67227223708496], [-10.541014755790712, -54.40540370365751, 16.203962157868094, 16.203962157868094], [-6.740793466688164, -42.643277938462255, 23.92864469851512, 23.92864469851512]], [[-9.827295350663219, 89.33234118924739, -21.149112564184808, -22.2032525923924, 16.927533640645393, 69.21802130283058, -51.079364295735544, -43.73895820547846, 68.37028189238069, -12.835221965719294, 78.08700644616208, 78.08700644616208]]]