[[[-73.26789654576964, 2.8084518324151118, 12.484329982175685, 12.484329982175685], [-14.45010042037622, -37.73633034069143, 15.103163165493966, 15.103163165493966], [-14.546367683729137, -37.835458764640606, 28.572781027666153, 28.572781027666153], [-4.168250593847296, -68.60316069345845, 56.829073525652255, 56.829073525652255], [-36.0492944585647, -27.236526158033218, 42.899568412687444, 42.899568412687444], [41.15306113443765, -38.15579353210726, -18.80997429364071, -18.80997429364071], [26.24357428063919, -49.29069762611116, 1.9599933122319784, 1.9599933122319784], [-28.866562501696546, 18.341026482551147, 0.4231598482719983, 0.4231598482719983], [-66.11083887259635, -32.19319402350604, 71.7279763138476, 71.7279763138476], [-47.923291771805836, 2.287782208593124, 14.287359988294813, 14.287359988294813]], [[46.14311275349406, 79.30875004683645, -43.4996307736304, -33.830317749385685, -23.728881672742144, 79.37679975687342, 26.296994718955442, 27.018383138698752, -37.28269074284814, 33.46259573031471, 36.11647249909579, 36.11647249909579]]]