[[[-39.339333150790786, -15.994299853193075, 39.26087193941377, 39.26087193941377], [-33.0512776549273, 10.833343225353747, 11.191986394867856, 11.191986394867856], [-5.070523274138675, -48.14173178285001, 41.391595793079624, 41.391595793079624], [-15.991192334591224, -25.789205722804603, 13.763584590847982, 13.763584590847982], [-32.57431394018676, 9.920821480818699, 17.120984794666892, 17.120984794666892], [-43.492031306003746, 24.042238128808698, -5.055437519608444, -5.055437519608444], [-42.79638843326671, -24.710401655953994, 18.722076731707705, 18.722076731707705], [-6.722844512671903, -37.292923865332305, 32.13484572444439, 32.13484572444439], [9.122991230275755, -26.88277965226876, 1.8533394776814427, 1.8533394776814427], [-43.54728382571567, -0.39333767284111126, 35.0811561056196, 35.0811561056196]], [[-34.90668755669985, 16.55900881134642, -27.134168626173288, 19.188405117623606, -17.793263706353926, 60.808170498472144, 44.894320173947975, -35.63815428487845, 58.520324300971374, -25.98594251745147, 67.93842653673751, 67.93842653673751]]]