[[[0.5405114401519419, 0.46880977756392034, 0.19065598676136813, 0.5170096488857366, 0.16927735277611777, 0.16927735277611777], [-3.4067619038002146, -3.8490953516099293, 5.108212458270397, 7.5553415790290925, -4.04285231847494, -4.04285231847494], [0.5219333594861398, 0.5758753573496329, 0.2520307083283037, 0.08585327548229557, 0.4716799431315518, 0.4716799431315518], [0.3233502930716935, 2.24962329802934, -3.185016317921901, -1.2586005961696196, 0.784063607406623, 0.784063607406623], [0.2944996266322057, -0.011819261169094987, 0.49623603220572965, 0.30669051516917867, 0.2309791776786148, 0.2309791776786148]], [[-0.9702520312142489, -4.684131881920001, -0.7149398645190256, 6.766784432475113, -0.8516047148339065, -0.792875689173696, -0.792875689173696], [0.6445118634661661, -7.271921857407562, 0.7611259229465878, -6.814076407250548, 1.1246229563283472, 0.8642980317934951, 0.8642980317934951], [-0.8919801896268506, 8.126197422856924, -0.9031621605052109, -1.0729805253358073, -1.0347685305592604, -1.0810086262920566, -1.0810086262920566]]]