[[[0.6293419485343574, 0.12199431722287585, 0.20873529679702035, 0.32008490743961715, 0.3088015151874849, 0.3088015151874849], [0.1504111931958336, 1.0367516205496312, -1.448021637005896, -0.6512154095240493, 0.5008925752370238, 0.5008925752370238], [-0.44447654771442346, -1.0301510998048915, 1.699571928260853, 0.7969737854734537, 0.23875055874569084, 0.23875055874569084], [-0.2752846223844849, -1.0872993566874596, 1.5063470599374016, 0.8385127192114512, 0.010963570582513333, 0.010963570582513333], [-0.31291440251832375, -1.1062863887639425, 1.5419625478249461, 0.8114000686334923, 0.18943960956868539, 0.18943960956868539], [-0.22412745918122176, -0.6652696069311689, 1.044264539023803, 0.5515891850535805, -0.07831014939124126, -0.07831014939124126], [0.17785085578844592, 1.144826713013743, -1.5834367002665541, -0.6030604916869075, 0.3569231398625309, 0.3569231398625309], [0.3633001589025115, 0.2979735069119627, 0.4889362065450874, 0.16947580384222985, 0.3683911786785094, 0.3683911786785094], [-0.21634995355755104, -0.378587454541139, 0.6466251369357929, 0.2572791969542703, 0.35469479313967905, 0.35469479313967905], [0.13174718220284704, 0.5419346022204102, -0.11171183575634043, 0.2502180192651871, 0.46356787368978913, 0.46356787368978913]], [[-0.6137286766182836, -2.5878381892128814, 2.7004180911263047, 2.5222773732516046, 2.553677757627021, 1.4490525177327016, -2.8377406066198136, -0.36339043562770124, 0.6621217025198264, -0.5436867667934188, -0.7141889106166551, -0.7141889106166551]]]