[[[0.7526325676578234, 0.6346485793880328, 0.41941734990112617, 0.25578911038877117, 0.5481973686726592, 0.5481973686726592], [0.915489093211066, 0.5816235042455979, 0.22426786158932607, 0.35233461896030355, 0.13898771336940038, 0.13898771336940038], [0.7213413220027751, 0.6852416081630704, 0.5796526400481469, 0.26376063835093405, 0.4085499824036433, 0.4085499824036433], [-9.234192833010606, -14.219459050668279, 18.941574999633943, 23.834179044413933, -32.05299080393951, -32.05299080393951], [-0.8429149867993326, -2.41342840480193, 4.139515075383392, 1.8001749214202283, -0.4333443917661761, -0.4333443917661761]], [[1.4715228633503192, 1.1740846436938726, 1.6227144416703478, -2.157531949061161, -11.063055698996667, 1.268149085355927, 1.268149085355927], [-1.5638708800977825, -1.387597027174003, -1.4553970430998064, -11.750491040711841, 14.00267346884736, -1.4502498565487536, -1.4502498565487536], [-2.2804221752148695, -2.1681493513607286, -2.3983789164551115, 12.061375040829773, 0.6557920993826756, -2.2000122977025125, -2.2000122977025125]]]