[[[0.7565344133250866, 0.5928681607920661, 0.3945700507369342, 0.39472273155138765, 0.24289559149818382, 0.24289559149818382], [-4.9747366828377855, -6.859735343789774, 7.468923561014673, 9.340251579745031, -6.032633983926217, -6.032633983926217], [0.810563685738938, 0.4759906886229756, 0.4583505037309556, 0.2912337861463806, 0.17990070931127267, 0.17990070931127267], [-0.7976885000201891, -2.505856873997415, 3.960415674807705, 2.085552800025917, -0.44534749504837845, -0.44534749504837845], [0.7265476323061653, 0.6023664724065497, 0.5603602333441599, 0.22173347614590605, 0.3508833992048735, 0.3508833992048735]], [[1.4086568967543711, 0.0422095317381722, 1.2159956370027154, -11.35187306332903, 1.5269622303398314, 1.3203498657209516, 1.3203498657209516], [-1.387615845638437, -12.092065610114954, -1.169916617393951, 11.255312854557365, -1.4760350204475094, -1.3871165378694479, -1.3871165378694479], [-1.97413926148268, 12.52506171997877, -1.915090700089384, 1.7441394742343674, -2.088545221038195, -1.9106189840224799, -1.9106189840224799]]]