[[[-0.9889753835578556, -2.414000579971428, 3.978135622660297, 1.8893366168940628, -0.3792824737118149, -0.3792824737118149], [0.9409721508850323, -0.5059726380206532, -0.9431543945917922, 1.1771540989971523, -0.9259369575793169, -0.9259369575793169], [0.22729506358255008, -15.334639919502084, 8.979013575220694, 10.520887241827769, -15.393465667542328, -15.393465667542328], [0.808638372870593, 0.4245515484174967, 0.4528103633680722, 0.4338498269631746, 0.3832480638421081, 0.3832480638421081], [0.42752605769596097, 1.907001430906926, -2.613414124245821, -0.6644513587338091, 0.015103001165617178, 0.015103001165617178], [11.749620144877726, -3.6402614921250236, -12.350307870283899, -7.961750144737191, 8.27472876143253, 8.27472876143253], [0.38327481724363943, 0.17944433383339745, -0.48702834249318305, 0.91935292689062, -0.9373282500729092, -0.9373282500729092]], [[-10.006663361248533, 0.8478009915908384, -1.5138476515757637, 0.29319571905882497, 1.8327889608290857, 2.496272015278658, 0.08222175791767682, 0.7258409077548732, 0.7258409077548732], [15.099428236739426, -3.709455302980376, -9.35485309428087, -2.3333710298710257, -5.984334449571792, 10.194918707757383, -3.2766290681888557, -2.3046851296958835, -2.3046851296958835], [-0.28408815781484803, -0.5152698066707957, 10.084171700781768, -2.165058436889808, -1.282853104949577, -11.3118595978779, -0.41120522556564554, -2.682425117817871, -2.682425117817871]]]