[[[0.5840380482471399, 0.5949722647443824, 0.0194516498927085, 0.3640850300426567, 0.3543755781462988, 0.3543755781462988], [0.7991848946055552, 0.5217260863896015, 0.5626045589088141, 0.16542080486861077, 0.3297803893552293, 0.3297803893552293], [0.5589745690480862, 0.7908867348121945, 0.46956937440998125, 0.3950090264669578, 0.564389142897927, 0.564389142897927], [-13.447695499893392, 1.3700527578021544, 15.962267889085933, 14.130200046141864, -19.253854433616603, -19.253854433616603], [-0.8532870481121908, -2.6071113273976545, 4.043875592294916, 1.9555799216348588, -0.36729453543328716, -0.36729453543328716], [-3.4265466288665634, 13.156425102041066, -3.623715984216827, -5.053003036785176, 5.886592715404322, 5.886592715404322], [0.6667366132002028, 0.8055274102142247, 0.32428496829314, 0.43830800676177994, 0.2862806503528605, 0.2862806503528605]], [[0.2004526260210812, 0.5805352725283099, 0.6085169014213517, -1.3083909254510844, -10.467442506191455, 2.58903670378992, 0.7925100487181873, 0.8333046864251034, 0.8333046864251034], [-2.577115847084187, -2.5964869653245986, -2.661040953800488, -8.914367709202075, 18.723640945514816, 8.419549857170782, -2.829598410477949, -2.8378045670804113, -2.8378045670804113], [-1.1782000361147873, -1.7361554846140934, -1.5230250778848788, 9.87050572129262, 1.9977196622834301, -9.42287956955138, -1.6584303714805708, -1.944269325495559, -1.944269325495559]]]