[[[2.476112693815217, 2.772815253786179, -3.859929600110224, -5.135652230799482, 3.255913798705314, 3.255913798705314], [-1.5673901309828293, -1.6603731281632887, 2.2905989653059953, 3.2662281334143435, -1.3128724208681921, -1.3128724208681921], [-0.7130351100099324, -1.4148068291643492, 2.6563741344429954, 1.4896918663675156, -0.04824967309340466, -0.04824967309340466], [0.5778284523399972, 0.2195326609014332, 0.25336179670477, 0.38343573770114636, 0.3356110262148618, 0.3356110262148618], [0.4639953760642537, 0.2940013226619849, 0.26322135338563885, 0.32432851244190863, 0.43825334840011365, 0.43825334840011365], [0.20080698088408155, 1.9843938164278956, -2.565796095093331, -1.144887335257547, 0.5541586167345162, 0.5541586167345162], [0.3196666408993196, 0.5029960402891148, 0.421102177186372, 0.022589555280055837, 0.3208507750326185, 0.3208507750326185], [0.31916245799209597, 0.3530504223533765, 0.2755186110198697, -0.004807265845645765, 0.39863815203722397, 0.39863815203722397], [-2.191671396570726, -2.5332573828675056, 3.3284107188789935, 4.65789861214316, -2.3222224741075865, -2.3222224741075865]], [[2.1235109292517507, -2.010820949199239, -4.0069971027654345, -0.237373980400273, -0.41057166023266234, 3.605250481488731, -0.40562542613584057, -0.5065220424577942, -1.978727525741246, -0.19179448374484595, -0.19179448374484595], [4.356624225764722, -2.360222477667296, 4.167295753056218, -0.44832483404737844, -0.5860316544440327, -4.945943186762068, -0.7632473142854199, -0.8771423561755008, -3.8315954860015657, -0.633993617883608, -0.633993617883608], [-4.947377596955766, 2.8682498925717557, 0.27231371654708053, -0.3928845196322258, -0.2771193245030843, -0.6346218831794977, -0.19073322000326298, -0.14144261525880863, 4.163467390960428, -0.4055386366516896, -0.4055386366516896]]]