[[[0.6245588959932163, 0.4233488034120312, 0.04171893854330162, 0.33859382719747444, 0.5089810177504678, 0.5089810177504678], [0.2056350868687627, 0.5064742953994444, 0.16235690711972317, 0.034726102968613046, 0.45967106144781733, 0.45967106144781733], [0.210531248036781, 0.5185536387495161, -0.35645637548634046, 0.2810061811677338, 0.48528586261640566, 0.48528586261640566], [-0.325998200069284, -0.7426503592011645, 1.2011397178923846, 0.7229848376633083, 0.0054526491464577855, 0.0054526491464577855], [-0.3758419633004279, -1.524418508876153, 2.1918312689299255, 0.9714667247101839, -0.1896002451186313, -0.1896002451186313], [-0.4950259703980765, -1.0981344093432523, 1.8726456753358915, 1.2513619903987079, -0.18371779147380943, -0.18371779147380943], [0.3705965757616741, 0.3943716516512026, 0.5244841017989942, 0.1415913627863561, 0.4622343426599857, 0.4622343426599857], [-0.593100144968359, -1.2189141054030488, 2.120534334001813, 1.11931589876762, 0.13339179955690952, 0.13339179955690952], [0.639424591123176, 0.33097047838735777, 0.2485060258752284, 0.286538690622971, 0.47354755020879524, 0.47354755020879524]], [[-1.3847292960687976, -0.7981457841195542, -1.3190300677161746, 1.730502168165385, 4.4600153506112195, 3.510087365068855, -0.901117444436093, 3.989170184643603, -1.3027657379904243, -1.0983049675821375, -1.0983049675821375]]]