[[[0.7723257576763011, 0.6591238815013825, 0.24399836321148136, 0.4008356819782907, 0.30707714752805926, 0.30707714752805926], [0.5512379464770417, 2.116686013921091, -3.1810144892395376, -1.1952944712699092, 0.5372179012804548, 0.5372179012804548], [0.7585996539721538, 0.514328031908025, 0.2482218759256413, 0.4889795183772614, 0.3283947289826981, 0.3283947289826981], [-0.7589856465226065, -2.2298235726341944, 3.4519526708127577, 1.88763593307317, -0.33812580172061585, -0.33812580172061585], [0.5750654530626705, 0.4908844194710477, 0.511041001155655, 0.5047257865592653, 0.34865417639373175, 0.34865417639373175], [0.7626743595728577, 0.3586754668680397, 0.42793848395178885, 0.19069376052949663, 0.4811602586519114, 0.4811602586519114], [-11.844325587107297, 2.554224169586479, 13.683639083502111, 10.479960502317715, -15.549981764845908, -15.549981764845908], [3.754235141226668, -14.738268404992947, 4.4345020702951325, 8.064096089606817, -11.93858884681016, -11.93858884681016]], [[0.47166133794295045, 4.670806607534214, 0.023683463943270127, -7.0389754229647865, 0.2933633410228887, 0.22803791936941414, -2.375204473130726, -1.8642779356556949, 0.39660135569213045, 0.39660135569213045], [0.6196263876317736, -8.673939169389168, 0.5834273999695139, 12.044880260544861, 0.7745657623743567, 0.462297282138605, -9.846534142952105, -9.200798927585174, 0.6481403547960386, 0.6481403547960386], [-3.030014590958945, -1.2175485384630256, -2.7965878063787426, -1.5468816871977107, -2.7740962121928385, -2.9343631852622165, 10.281438574316683, 9.645139349617011, -2.8561474795150477, -2.8561474795150477]]]