[[[0.5567316770569247, 0.3432098901109662, 0.22172388798774884, 0.09590909819689229, 0.07512887619157477, 0.07512887619157477], [-0.49503630403392157, -1.3725266489065946, 2.136568754840023, 1.274469412926783, -0.06054019175969104, -0.06054019175969104], [0.5096886458168542, 0.5233490361446692, 0.06036494694227499, 0.28096717000675436, 0.2728116218716925, 0.2728116218716925], [0.616028753638919, 0.33644129095371395, 0.49924153741747646, 0.4124282903998519, 0.20479087182184608, 0.20479087182184608], [0.44559223970955103, 0.4578363328012118, -0.013600659766769298, 0.3871622161390859, 0.4911266575435776, 0.4911266575435776], [-0.253171075665117, -1.2071855300448067, 1.4028523375852686, 1.101460665320767, 0.2293856270482415, 0.2293856270482415], [-0.39195206272729327, -1.3852074645422465, 1.9511867741233122, 1.0247122682402512, 0.09373074409995781, 0.09373074409995781], [-0.39706739586403955, -1.1084088984426044, 1.785154914923486, 0.848480454041446, -0.14365996211191787, -0.14365996211191787], [0.3280097174071726, 0.5649901371001014, 0.05004893607851074, 0.040220632329973964, 0.23863398522701051, 0.23863398522701051], [0.5009685470296791, 0.4522449990813977, 0.3442518057896289, 0.22769744522435126, 0.17602734531386677, 0.17602734531386677]], [[-0.7623052043812699, 4.45576257083804, -0.8138372094553601, -1.1604216913960517, -0.9144248561875522, 2.6219494363035984, 3.79031734079471, 3.0361926507647485, -0.8754422230650938, -1.0442345165796516, -1.268224102557593, -1.268224102557593]]]