[[[-0.7789288592405865, -1.8489781161137806, 3.1071887852552, 1.717962476451063, -0.0706878437003881, -0.0706878437003881], [0.07415711090075582, 0.9066368814640523, -1.1338260352426923, 0.0358220261669216, 3.692243198264824e-05, 3.692243198264824e-05], [0.6196980423196994, 0.4319212117395513, 0.0077563608321707415, 0.3938263772703055, 0.25172678474253957, 0.25172678474253957], [0.6744155099600353, 0.29736437534164406, 0.24196552350736653, 0.12434648309739131, 0.1756311359157189, 0.1756311359157189], [0.6034728122016867, 0.5725680440114598, 0.23872592861424694, 0.34535453761923657, 0.37592948744547283, 0.37592948744547283], [0.379273288307147, 0.6667311689750436, 0.07975793899734723, 0.30759247691469177, 0.4536308807653234, 0.4536308807653234], [-0.5864056722058779, -1.9472738022319918, 2.967549664501261, 1.5826026353953402, -0.320909709612088, -0.320909709612088], [3.0257483390375044, 4.257570128033453, -4.6992257560012005, -5.535916723938463, 4.080963412974647, 4.080963412974647], [-2.1543931794116444, -2.615320044420097, 3.012731957933674, 3.949879044484698, -2.3207343174775934, -2.3207343174775934], [-3.8504897691325044, -5.363460389673188, 5.835649487783269, 7.035558206088665, -4.564862783671694, -4.564862783671694]], [[-6.002168532225762, 0.7307405830886896, 0.41006438539294165, 0.331365004008109, 0.7161791907943575, 0.7332089021756782, -5.771878503815838, 2.2952620424911725, -0.6653024041653035, -0.8277535728851046, 0.8870411675159067, 0.8870411675159067], [6.477125590386235, -2.3088105365876386, -1.7463724866974366, -1.4570624397513061, -2.080088596743009, -1.9363775976278979, 6.01191068132587, 4.969603651875094, -4.010478822333698, -8.58778196853317, -1.808781571873599, -1.808781571873599], [0.40026492547483983, -0.3849474107605169, -0.4949791988211851, -0.5455230600676055, -0.4021079178094835, -0.20999593090929236, 0.45754117971159924, -7.3120082839075415, 3.6970720843870164, 7.514945420072597, -0.7403468234340099, -0.7403468234340099]]]