[[[0.7725609367465879, -13.298267809811968, 7.782529795578988, 6.754311695313304, -13.122335853924852, -13.122335853924852], [0.43333087118731173, 0.6975339860798905, -0.1873015326615238, 0.36005686230333583, -0.5006657309192751, -0.5006657309192751], [-0.7233084919181585, -1.6651555827684767, 2.7023425527217184, 1.6366514826343905, -0.01584586835700741, -0.01584586835700741], [-9.750737524389914, 7.185623483594441, 8.38880242795716, 2.553879753121043, -3.1403430040300555, -3.1403430040300555], [0.47185574149420717, 0.4541493034998482, 0.34356139051162354, 0.5013413784652847, 0.4829056691761174, 0.4829056691761174], [0.5784312093036942, 0.36203548073759484, 0.5329793552372463, 0.31654526759894874, 0.2866510175776031, 0.2866510175776031], [0.6965459246893183, 2.016979333028597, -3.275879655314361, -1.4542201639387435, 0.59400196328763, 0.59400196328763], [-0.7506701000194645, -1.7547161195637364, 2.9441758428654357, 1.324709937818708, -0.022114450516329615, -0.022114450516329615], [3.5970006056832897, 5.278303290429715, -7.12476481357743, -9.059298192175014, 13.25210623088114, 13.25210623088114], [-1.0835171652672186, 2.56008556402043, 0.2844879634778352, -0.060831918283315516, -0.8115808552414461, -0.8115808552414461]], [[-2.185971571088509, -0.31475524134629124, -3.417668492923728, -0.8853156632760001, -0.32509507846716745, -0.08456600952246374, 5.077596672054, -3.841355098052985, 2.0605162542472653, -0.2251748389697452, 0.04499772935058277, 0.04499772935058277], [-9.489812613136879, -1.2172650154965934, 6.2355065623490455, -8.941458516382296, -0.2997073277051478, -0.5772592419434883, -9.048199972103216, 6.623188598304691, 7.936354070653233, -2.099379694826931, -0.7070706977718669, -0.7070706977718669], [9.62317115143533, -0.6278777994187187, -1.1438864431803428, 9.943825266208933, -2.1164959287020504, -2.0668115362290624, -1.2713567252337836, -1.1135512848475557, -8.435538004897685, 0.2806580044026528, -2.2313903037943663, -2.2313903037943663]]]