[[[-0.6319396538631104, -1.6942656789145034, 2.9209627682075374, 1.2683109124972631, 0.047330133294736405, 0.047330133294736405], [8.484534858462037, -5.801012723376222, -1.5609152948689948, -14.929490914323866, -5.381315417820272, -5.381315417820272], [-0.5931779344140254, -1.7443566472305447, 3.0578935433602843, 1.2460821977886856, -0.37026270855828586, -0.37026270855828586], [1.4380023372335065, 1.3088777166117813, 0.1637343297164212, -19.321089803216946, 19.848606821009607, 19.848606821009607], [0.459389761187387, 2.179233148681623, -3.1148687341240167, -1.4645694649838796, 0.39815480660844127, 0.39815480660844127], [-13.715510903128324, 5.540130812604556, 14.946162695442743, 5.959103075767757, -11.080017558010622, -11.080017558010622], [4.177809889372909, -14.814423029062944, 3.950664997499979, 5.784917687328489, -8.585228476031322, -8.585228476031322], [0.4065852473342128, 0.18534545848816114, -1.0526538096758304, -0.3473592553337307, -0.11596890012215982, -0.11596890012215982], [0.02927517164940151, 1.5645950719250499, 0.232980631163396, 0.29610268847154314, -0.7740878000386239, -0.7740878000386239]], [[-3.7637749398939158, -0.24577808047776878, -3.7905481198310036, 1.5034153892155036, 4.731415599931126, -0.9720072371313748, -1.0892384973566809, 0.31756681375185697, 0.16702181522031237, 0.11080941352988959, 0.11080941352988959], [6.278213830609888, -10.160928894072773, 6.785769672561871, 12.317104687681422, -7.407059776005032, -10.27101321166385, -9.107075163852796, -1.401565737719806, -1.0416995978163344, 0.18941915953118035, 0.18941915953118035], [-2.537853441176659, 10.097295960633229, -3.199770908247922, -12.292195292683768, -1.5397944421167102, 10.122731841678041, 9.048637476775683, -1.4703312027921, -2.17709098026435, -3.9810160396491274, -3.9810160396491274]]]