[[[0.9374484914849748, 0.4878485029062931, 0.40948209953213405, 0.059331031063290504, 0.5827508105475622, 0.5827508105475622], [0.3922411238319966, 1.954974898338608, -3.2588428254923603, -1.0606663178829927, 0.7104447214815865, 0.7104447214815865], [-0.85224672592479, -1.9769785009347087, 3.7012634959887682, 1.8604711625224688, -0.2506977457719775, -0.2506977457719775], [-12.792903451279289, -8.828057567767639, 21.777001817794343, 18.33908782377716, -31.06542391680002, -31.06542391680002], [0.7581957207074058, 0.7336724730058324, 0.37892780478297056, 0.2716768740541021, 0.43658585308871706, 0.43658585308871706]], [[0.5438044159065729, 4.424846149754465, -7.648195690471687, -2.061233125494163, 0.46932079293920426, 0.6764875828059935, 0.6764875828059935], [-0.17305232367877352, -5.679671033033707, 9.28491738415522, -12.146188833417078, -0.2001111586982625, 0.08538922224607333, 0.08538922224607333], [-3.012919738322748, -1.3337199672274949, -0.5508780109495258, 12.287170499459963, -2.5892935962311165, -2.976228156069457, -2.976228156069457]]]