[[[0.6101416326768111, 0.5134504370899383, 0.20889567491526584, 0.47495791140145616, 0.27896795382701967, 0.27896795382701967], [-3.6513345675660758, -7.199219556879466, 5.264692966806675, 15.616569560453474, -10.085012661121318, -10.085012661121318], [-0.5595645602426959, -1.3231242418794749, 2.2534218463689175, 1.2393420885319784, 0.10495975783570524, 0.10495975783570524], [0.23558421623253076, 1.9417733082465691, -2.6024269431920906, -1.0656684187585062, 0.7035005414874173, 0.7035005414874173], [0.3286826018658261, 2.1176889197045785, -2.912388071151945, -0.9200994101868293, 0.41425156207923924, 0.41425156207923924], [0.7216333662982485, 0.47638435826513287, 0.3224186799214067, 0.3591047740973154, 0.21339085160748777, 0.21339085160748777]], [[-1.0540142638479988, -3.8130222857700597, -3.34028653861536, 3.8840292213356595, 4.953828652132919, -0.7311078362453314, -0.874096716549636, -0.874096716549636], [0.8121361980302618, -12.95880873856592, 3.0666704642088582, -4.416386854489008, -4.970154894126356, 1.246368474935369, 1.2268524494548534, 1.2268524494548534], [-1.5577745705361385, 13.05628596717317, -1.0231119715645454, -1.3835309280536299, -1.3850292070821917, -1.9854740184229336, -1.840622984596396, -1.840622984596396]]]