[[[0.7260606550425411, 0.2957610786454906, 0.40514414408467764, 0.24268766367281758, 0.48534731684269705, 0.48534731684269705], [0.5831734050200132, 0.2816269726557804, 0.6118492133921858, 0.3314821166181061, 0.39669943675235286, 0.39669943675235286], [3.3077475699403553, -5.488718677887377, -1.9027778786316294, 13.029077751565776, -18.950461118556888, -18.950461118556888], [0.6444768970459565, 2.2612300886874497, -3.352826478498438, -1.459099344624176, 0.33499530706791203, 0.33499530706791203], [0.7579817604477412, -14.084166809640974, 8.483642874550542, 6.474177183670458, -12.581699096446618, -12.581699096446618], [0.2365929471598932, -0.06215499492918971, 0.7271653129514145, 0.36768613648638354, 0.18512731404212684, 0.18512731404212684], [-0.6965762304311187, -2.1882341736227753, 3.21375174008902, 1.6693301695717748, -0.09081085721338139, -0.09081085721338139], [-13.651263776157021, 5.3922557392500226, 15.315513422958135, 2.7293003624096577, -6.9195810009730305, -6.9195810009730305]], [[-0.018822806536859155, 0.12277745002542989, -1.299744195936284, 6.269335430022497, -1.1028092379480032, -0.4436261857983501, -5.312201597881638, -1.9784353691973737, -0.015961147329339946, -0.015961147329339946], [1.1392818557514446, 1.1530906687035327, -6.5489500935536755, -10.242711749844249, -7.219657393191821, 1.367241447294101, 10.438419042733628, -9.521725704772159, 1.1989306744737611, 1.1989306744737611], [-3.5666403815053758, -3.523495759819931, 6.691823749836262, -1.907806360285259, 7.619898447032011, -3.2065463926973834, -2.1941255919666056, 9.8176833555369, -3.501059716713862, -3.501059716713862]]]