[[[-2.856790340957758, -5.566395635739217, 4.0397235029596095, 12.021444160621774, -7.400511717727793, -7.400511717727793], [2.456682551736496, 4.898341719665564, -3.4596440779512903, -10.805571585718335, 6.804583347545019, 6.804583347545019], [0.5907374412954038, 0.5853266077671109, 0.07963548496803873, 0.29789016309354555, 0.07630642680566678, 0.07630642680566678], [0.5764053764691074, 0.5837892027662097, 0.25294627081752946, 0.06478711136077267, 0.4336954982164281, 0.4336954982164281], [0.7575494388060808, 0.364919365568415, 0.3156154536687129, 0.14877858064166902, 0.277725029935083, 0.277725029935083], [0.5804221091236071, 0.5947808223202912, 0.46330596002192914, 0.40929322579762834, 0.39813353976982485, 0.39813353976982485], [-0.596017385960797, -1.522621874783709, 2.45673946133655, 1.1951472257857292, -0.06285386046949482, -0.06285386046949482], [-0.7232577238136948, -2.217020426782733, 3.3295488260709942, 1.8769333477202035, -0.282338411426303, -0.282338411426303]], [[-1.6633692497244694, 2.7051874653572847, 0.5259493894674356, 0.5043325759454499, 0.5755646857083403, 0.5499126561889618, -3.6052729256760783, -7.915344494815507, 0.8799692648248555, 0.8799692648248555], [-9.527610392486263, 6.8474286881611945, -2.465839323970158, -2.6519951728526685, -2.350277886872564, -2.4470331860182326, 3.9267857958516723, 9.49033850471267, -2.505896242650959, -2.505896242650959], [8.717280383445313, -8.734908842734642, -0.3660849191742056, -0.6010161923671393, -0.3032694204950563, -0.37607260659399905, 0.6172375881615211, 1.9496004457282492, -0.6109749188324715, -0.6109749188324715]]]