[[[0.5404383321778953, 0.46880847625401995, 0.1905396656018768, 0.5169690316770332, 0.16926712631511437, 0.16926712631511437], [-3.4051859273737786, -3.8468670170323804, 5.105624185066515, 7.548891907834608, -4.035724874223525, -4.035724874223525], [0.5218262955123171, 0.5758451717064501, 0.2519186607338282, 0.08581756109968315, 0.4716617291854995, 0.4716617291854995], [0.32326773698764466, 2.2493536927953297, -3.1845530470171157, -1.2583794895989953, 0.7840153703930521, 0.7840153703930521], [0.2948619281356624, -0.011308377515147624, 0.4958116062982206, 0.30650905783400345, 0.23106883461973451, 0.23106883461973451]], [[-0.9699657914912077, -4.684098032434243, -0.7146601732720312, 6.764560645407561, -0.8511855515235848, -0.7926012929663275, -0.7926012929663275], [0.6442488820030706, -7.269086679212764, 0.7608662793148792, -6.811861899565835, 1.1242857312546155, 0.8640275721111039, 0.8640275721111039], [-0.8917562407269891, 8.123837069746918, -0.9029347673032002, -1.0728317518609443, -1.0346068717320933, -1.080766095123329, -1.080766095123329]]]