[[[19.36711676244108, -26.184567026433413, 12.509190036248844, 12.509190036248844], [-33.23070446618113, -14.030758474011849, 13.164597684346736, 13.164597684346736], [18.027894009065854, -31.417508631225616, 0.39377301405657245, 0.39377301405657245], [-3.159590240534472, -26.086473064467015, 19.65692113881161, 19.65692113881161], [12.442620148244796, -25.496778848586988, 1.5088828344514018, 1.5088828344514018], [-17.13273489241538, -13.866845164243262, 12.806677273316973, 12.806677273316973], [2.3948740400080837, -23.96180548207159, 4.139563011324564, 4.139563011324564], [27.758489743193337, -4.503423116613473, -20.771898376902268, -20.771898376902268], [-22.72566430190394, -21.885641007556288, 30.353151860352504, 30.353151860352504], [26.4768294891839, -19.1603748055247, -12.725841422838664, -12.725841422838664]], [[-74.0755568615454, 59.976059842398904, 19.789269428244378, -13.592070370332452, 15.957005418790965, 26.27814439284761, 20.466283879098434, 25.10635163551287, -70.17901132157382, 28.876807469174196, 78.14754574448754, 78.14754574448754]]]