[[[-14.070029123548153, -28.22867607082004, 29.976729322473005, 29.976729322473005], [-29.56884422869735, 18.126831080883928, 13.420027428791586, 13.420027428791586], [37.27953719727044, 13.677973920325895, -30.987649008666498, -30.987649008666498], [1.0495954176992335, 1.3603862597728182, 5.455913959303362, 5.455913959303362], [-27.933392126121422, -12.138643957368748, 29.181478439974764, 29.181478439974764], [24.42926168104872, 14.22898297906199, -11.634034825732234, -11.634034825732234], [-10.650840407398006, 20.273533126354927, 0.9134405241245453, 0.9134405241245453], [21.779760314153492, -22.3320056279928, 9.70927676544365, 9.70927676544365], [-23.33860103260177, 12.775775671380849, 1.829193178139532, 1.829193178139532], [-2.9970468611013965, -30.83267368279626, 8.753454941892487, 8.753454941892487]], [[-35.13174779192783, -28.045423441545168, 51.52479683948287, 30.66846397688047, -20.170790120372533, -37.95063992806611, -15.386636803998353, -39.37727195555397, 60.837464692407664, 74.70002743510618, 52.29658995554754, 52.29658995554754]]]