[[[-39.37678130580308, -5.932753369278415, 31.57856442450331, 31.57856442450331], [3.41950552518961, -33.25352599675853, 24.84158961774433, 24.84158961774433], [0.9453199848577915, 0.37850572776267855, 3.7903996231519295, 3.7903996231519295], [-20.751956386720124, -21.951332403363686, 29.016605133456558, 29.016605133456558], [0.9438760245229906, 0.3720809164963174, 3.9503200449879063, 3.9503200449879063], [-1.0082801535348342, -25.796533541071845, 6.346182382236632, 6.346182382236632], [29.44917353557172, -19.21420841027878, -15.309162069364445, -15.309162069364445], [-36.6707763758628, -10.689420945515746, 11.11633828742932, 11.11633828742932], [-19.002535497094513, -0.35206692480309987, 5.340323164795311, 5.340323164795311], [-17.589594512746668, 20.993231793978104, -9.747907686827617, -9.747907686827617]], [[-36.348281044509925, -49.68777711460137, 10.919635027055705, -38.91056374296313, 12.000669784433262, 80.36692922994432, 39.48571490874406, 34.21445245005161, 53.92005241145411, 33.168143346750334, 29.213306877514174, 29.213306877514174]]]