[[[0.21974814014033028, -0.8421947185699663, -0.508842873589453, -0.508842873589453], [-1.8819626862260874, -2.6860754528724273, -0.09083896283485444, -0.09083896283485444], [-3.2772319115996065, -4.071789338911764, 1.097525395673658, 1.097525395673658], [16.156680547701935, 10.990882988396217, -8.71557805267129, -8.71557805267129], [15.16930919921153, 11.496727770231265, -18.247327122124506, -18.247327122124506], [11.57216815732783, -7.209731198483597, 1.9512280987519153, 1.9512280987519153], [-0.7090445754517951, -1.8592391451062786, -0.5427134137790446, -0.5427134137790446], [12.515660687330566, -16.261628309087154, -3.306808487688622, -3.306808487688622], [-11.636461677064403, 17.914330279856003, -9.17592736697087, -9.17592736697087], [-2.301523979282454, -4.178123740458102, 0.8046782615234497, 0.8046782615234497]], [[1.6436564918441094, 2.6072901297287663, 4.25543983436081, -42.76657953245642, 47.54839611273033, -8.54121842441612, 1.8367149390352766, 44.90802799960809, 42.44861660189609, 3.846998320202285, 9.440883232514237, 9.440883232514237]]]