[[[-21.028123219394043, 2.246038399911562, 3.5348703263965815, 3.5348703263965815], [-14.588966233964308, 11.90313623500579, -4.671541259819954, -4.671541259819954], [-14.372791904183607, 19.007382381330117, -10.10037010667124, -10.10037010667124], [21.69179585863009, -15.964047608922721, -11.068653893782548, -11.068653893782548], [-2.3367193913795403, 28.82406088226455, -21.70758683831643, -21.70758683831643], [24.74544831004245, 11.554761476659195, -21.56158260847769, -21.56158260847769], [3.2861375512767204, 22.47427489581581, -6.3686741532157, -6.3686741532157], [37.81396778226419, 18.205569494635668, -41.06021431034544, -41.06021431034544], [-21.61330925083812, -9.549302823672287, 8.07559989313284, 8.07559989313284], [4.405802279254458, 14.801177253081736, -14.276295819398229, -14.276295819398229]], [[46.159964917424226, 14.901478592310282, 24.225000558237745, 50.16657245320978, 38.190235581188105, 21.20725978468011, -71.39912628990892, 41.04660490042844, 34.913202700363, 13.561087026590778, 9.816271350426122, 9.816271350426122]]]