[[[15.504028060362227, 17.807384790890172, -22.929575311436768, -22.929575311436768], [-4.838720227102261, 19.142756908885985, -12.002145854781281, -12.002145854781281], [17.302831253322854, -5.632432643219361, -0.562258577802692, -0.562258577802692], [-4.70550193135224, 33.24868842852261, -25.255399637464183, -25.255399637464183], [-1.957096549676977, -20.397199908989222, 7.103964758948462, 7.103964758948462], [-12.345885797998037, -4.305417340834998, 4.219900719299173, 4.219900719299173], [-21.64953861370622, -9.267913477490062, 8.164059337410205, 8.164059337410205], [29.64239569300418, 6.0417091386005195, -25.038312138095527, -25.038312138095527], [-2.501264357354664, -28.91109963937069, 6.148305336042307, 6.148305336042307], [24.525238398782864, -15.853741036327053, -12.384108355047111, -12.384108355047111]], [[34.87287453299232, 26.714366438494128, -69.50930047638123, 45.653819592352015, 50.637411016292425, 12.447218200519714, 26.448091286190923, 42.706289043151095, 30.660135446476634, 32.53131052398273, -2.8925525006796313, -2.8925525006796313]]]