[[[-16.634074638897136, -6.352745136789349, 13.095256253697238, 13.095256253697238], [17.38316986370081, -38.66509550201124, -3.691863690073247, -3.691863690073247], [-45.17722579088814, -14.99745873885026, 43.92585235819786, 43.92585235819786], [-8.864028667470574, -47.7621220787605, 44.26822166634346, 44.26822166634346], [-39.21941972265943, -1.9668111099631609, 7.102667597175216, 7.102667597175216], [18.454309468419964, -31.163654286237374, -2.124476085318455, -2.124476085318455], [-30.3677710294127, 33.28418635846541, -15.89580897245648, -15.89580897245648], [-17.56211807559471, -30.70062102349318, 12.981854516743173, 12.981854516743173], [-29.392668465300826, -11.224664688264001, 11.816582652583728, 11.816582652583728], [-11.710072705828086, -25.90411256737125, 9.375398690248662, 9.375398690248662]], [[-21.693611820965316, 27.58183510312577, -43.595014443003805, -55.91652145362281, 42.657049911062465, 38.89339702560258, 74.09716654021759, 27.23191163841891, 41.909410665900324, 20.185828000574777, 58.99093016888993, 58.99093016888993]]]