[[[16.875334057404274, -25.90401094527953, 12.484290025643114, 12.484290025643114], [-20.98353475406427, 24.102022906715714, 6.668753351906828, 6.668753351906828], [1.4953508896867473, 27.061103349963133, -6.82275922855606, -6.82275922855606], [-5.802175304590743, 31.180075633371455, -22.232524976388582, -22.232524976388582], [0.7479526455648403, 1.6439350390274416, 5.0324728576759465, 5.0324728576759465], [-20.664102538796442, -10.158697473445107, 12.045495288502703, 12.045495288502703], [36.78547445692969, 14.445430428884649, -12.946055089773031, -12.946055089773031], [17.996735849137213, -4.1768727935167025, -2.577791028499481, -2.577791028499481], [19.81270455697072, 1.951441453611303, -13.609736051478926, -13.609736051478926], [22.577897441162282, 12.997286419785802, -25.158705314206358, -25.158705314206358]], [[-33.41225975312542, -47.800446267101236, -36.314659536317095, 65.24623255510849, 28.225685113203166, 59.11926008509867, -29.888697720048075, -11.426962363317049, 43.393337603592904, 55.56652379815087, 41.13409682725589, 41.13409682725589]]]