[[[-24.426277023126584, 20.17890114227966, -7.256148030782028, -7.256148030782028], [-30.834247687848954, 2.9507729460815137, 18.70713038954796, 18.70713038954796], [-5.633582693141511, -28.681177379239468, 8.927029437509482, 8.927029437509482], [-24.828427026132694, -24.17898331805699, 33.65665455970511, 33.65665455970511], [-31.733874547156336, -16.23815894997246, 12.699420532020541, 12.699420532020541], [-24.30446893976399, -14.943782998715166, 21.521813349333684, 21.521813349333684], [33.13771181888838, -24.482666607253833, -16.51817713303957, -16.51817713303957], [-50.21519478089036, -28.02362938644421, 56.16917766788935, 56.16917766788935], [8.0854921807397, -44.97870229558429, 32.68343459745522, 32.68343459745522], [-27.67002224020421, 4.334556001143415, 4.6295204680893836, 4.6295204680893836]], [[22.894528916378242, 16.238619626218902, 76.33212361697848, -28.323459288799956, 27.893041019052998, -17.92325590591946, 71.44239419770723, -41.78912301934854, -49.98375920017694, 53.24910302113195, 53.05711451913198, 53.05711451913198]]]