[[[-13.623816584738265, 16.716042789575365, 3.919441648426002, 3.919441648426002], [15.95656438354792, 18.096275034189876, -22.39230643953899, -22.39230643953899], [-0.8374102820154223, 20.57930511950334, -16.312423078248766, -16.312423078248766], [-22.292006903912878, -9.767133169129313, 9.627158315836747, 9.627158315836747], [-31.46518500553581, 16.693679326360495, 4.338717698268828, 4.338717698268828], [3.390368657732406, -27.71604269842121, 5.0646949423394245, 5.0646949423394245], [-23.962916646037268, 21.238933077822026, -8.858349476601902, -8.858349476601902], [-8.986015198453465, 13.193555690963446, -5.905431638598761, -5.905431638598761], [-22.12572396562146, -8.675719299507806, 20.666451493016485, 20.666451493016485], [-21.92475901239096, -32.17815974834864, 25.61514565765675, 25.61514565765675]], [[-33.92982539228611, 22.31704305769141, 18.76273566481604, 76.11762615775035, 37.63926301363024, 87.17388631610528, 34.13027705863611, 12.195503113651794, -59.70308068828011, -27.717449751699476, 14.245550171500629, 14.245550171500629]]]