[[[-13.477174423711386, -13.999360757456296, 6.325911806352241, 6.325911806352241], [31.067123269271267, -20.07783464788485, -15.811719642260469, -15.811719642260469], [-39.09072257707455, -1.601980305788086, 8.578706280680404, 8.578706280680404], [-11.207052987614832, -38.812111919196894, 13.81495895931103, 13.81495895931103], [-30.23167263016703, -20.935813261706034, 34.78021774055338, 34.78021774055338], [-14.134188752502338, -38.31487315387497, 27.286877511054772, 27.286877511054772], [27.00144315163147, 29.81246257582727, -39.335228058072786, -39.335228058072786], [20.180600646343045, -40.24558842680237, 23.22671519777931, 23.22671519777931], [-1.2798388897083268, -2.5531615290338916, -2.1130550512225064, -2.1130550512225064], [-4.490015293605245, -13.404155701284479, 3.404269733210402, 3.404269733210402]], [[12.394700636049176, 62.303391945472775, 69.02599989973163, 57.25231960561861, -35.796237244438124, 16.873802446654523, 44.68656677897952, -81.6989564159627, 0.1400320187114246, 8.242295163525839, 41.06331999074046, 41.06331999074046]]]