[[[21.167162804087994, -13.7653064646781, -11.196653443525637, -11.196653443525637], [-1.571217756013196, -34.141898534800525, 7.0551968767411815, 7.0551968767411815], [-27.402556901779825, -17.75410372495224, 11.96658901241534, 11.96658901241534], [34.942013861304005, 10.049120341671703, -32.946178502618835, -32.946178502618835], [-38.40218125629052, 8.64118218321115, 0.8712882315663976, 0.8712882315663976], [-21.339498326433144, -26.608664828598272, 26.925782489396653, 26.925782489396653], [20.440779781170182, -16.67138439552296, 5.919660685142122, 5.919660685142122], [-0.5556440541969819, -35.40760707302347, 26.762423271256456, 26.762423271256456], [-16.33695436898296, -20.80788162930008, 25.769003546855224, 25.769003546855224], [2.7948398537818178, -39.86518751725301, 30.79710392493954, 30.79710392493954]], [[36.56889930004847, 37.874039157400766, 45.135300954615936, 69.07557915139827, 37.59189316078166, 47.73813770995336, -18.836834393316693, -36.838112051230105, -17.805295378444736, -39.36691718113766, 32.589376692298316, 32.589376692298316]]]