[[[17.642549614436227, 9.708724164574285, -15.572586649710248, -15.572586649710248], [-16.02430137962604, -8.88783138418256, 6.89764245744971, 6.89764245744971], [-1.8010427683528656, 15.032376747635489, -11.048315319923649, -11.048315319923649], [12.91950887691721, 0.6015690408313501, -10.620003138316019, -10.620003138316019], [-14.131988586531266, 6.154639293432455, 0.04946012541050044, 0.04946012541050044], [15.049548709064263, 4.5883173453533725, -14.936404226296787, -14.936404226296787], [14.777516323306173, -11.946217509935423, -6.419926534486337, -6.419926534486337], [2.1817145723319418, 15.203280044581101, -4.755200590334845, -4.755200590334845], [9.371510925916603, 14.325169581655576, -16.630935036152312, -16.630935036152312], [-7.954724667876276, 9.602340229234477, -4.45604939003094, -4.45604939003094]], [[16.503663148370332, 24.702887190195565, 19.591106612270593, 14.075954184646154, 46.63347144554841, 17.198095916050345, 23.623435787910225, -53.102783387499215, 23.605327978013342, 11.08084203609703, 0.692449601713808, 0.692449601713808]]]