[[[-42.919964887844245, -54.90163039009031, 70.46351062093657, 70.46351062093657], [-31.884050971965458, -36.66439338708291, 20.018832962415768, 20.018832962415768], [-36.53680971104537, -31.40535877528311, 39.45332531422132, 39.45332531422132], [-60.06958577827249, 9.637164971937692, 43.46595241989563, 43.46595241989563], [-45.44388414226357, -13.922124370811714, 17.525578776066677, 17.525578776066677], [-49.88327976434314, 9.829557957615034, 2.9740308683331977, 2.9740308683331977], [-15.403990237340428, -56.674978220318344, 48.67106557726523, 48.67106557726523], [17.453876545922256, -50.36180912575231, 0.7349647870346041, 0.7349647870346041], [-23.22437720510108, 46.204648475997764, -26.722495497000047, -26.722495497000047], [-40.35304824320787, 16.95461263132541, -0.04521951139507956, -0.04521951139507956]], [[-36.23182842251607, 61.86024510592369, -26.07371456470595, -54.38849984108012, 23.534115947067285, 21.340533796302292, -15.971959226950625, 79.59612843569074, 35.80873336657655, 38.91381712268734, 56.467260610553296, 56.467260610553296]]]