[[[1.50518435844983, 24.69728541426868, -20.739952972986504, -20.739952972986504], [-23.593491374514198, -6.233469298468542, 7.4491618995116475, 7.4491618995116475], [-25.675770791777815, 19.2259049951796, 11.840029403650657, 11.840029403650657], [0.7731832215459208, 1.0041700526920057, 4.773447918670848, 4.773447918670848], [15.508511967860581, 16.732145487302084, -21.62043773217866, -21.62043773217866], [8.954782940726806, -24.36165845180418, 15.308162699342994, 15.308162699342994], [-15.915656643244255, 7.012524150867262, -0.06994141598080147, -0.06994141598080147], [1.356609729422892, -15.590078496515568, 3.814053774534107, 3.814053774534107], [11.891779018548771, 21.61548338875144, -9.89719838804126, -9.89719838804126], [-28.801233815891425, -5.77853089625388, 24.799878817693866, 24.799878817693866]], [[30.408947635263015, 29.860595815108532, -33.24800835599476, 19.42710291860931, 49.21979290485974, -26.149399240880577, 71.91379520083149, 55.785902231934955, -33.33762501368946, -33.83247379019877, 29.72541082948921, 29.72541082948921]]]