[[[17.719841348225888, 6.784452522518723, -18.428627053200305, -18.428627053200305], [14.82867352588696, 8.669756260899842, -13.899228139156786, -13.899228139156786], [15.043213277801948, -11.931199955263427, -6.822676592164361, -6.822676592164361], [-8.20359575935768, 16.448920775880683, -9.73305701379513, -9.73305701379513], [5.507797926982985, 9.474227870400794, -10.719485615058467, -10.719485615058467], [-9.015218528670696, -7.553000464681227, 5.043465838377288, 5.043465838377288], [-18.64254832661305, -7.469421802238122, 6.804507135754161, 6.804507135754161], [0.4473320526367525, 14.732411963378414, -3.947793796980862, -3.947793796980862], [-13.508453107595654, 5.42886568046043, 0.10329095645053332, 0.10329095645053332], [0.6934466230606374, 13.27875072619054, -10.763697011027567, -10.763697011027567]], [[25.48767891461013, 27.9173619767247, 21.33962520124451, 21.799667383248774, 12.905654013239147, 12.633780502865674, 22.185195499268605, -52.91880179786657, 47.50092461461027, 15.062070971501887, -1.3742382636351074, -1.3742382636351074]]]