[[[24.391730464524834, -1.781060579837395, -17.427967859308307, -17.427967859308307], [2.5568593804650512, 19.781162001139162, -5.71382974416405, -5.71382974416405], [5.250796791672741, -3.434102930519857, -1.981411555804099, -1.981411555804099], [26.06247870673354, 1.2400612342867945, -6.789415087433716, -6.789415087433716], [-2.2073483554561926, 0.20477793158946322, 0.15814422512879034, 0.15814422512879034], [-17.987900601429118, 5.389615495457473, 1.0808706913598587, 1.0808706913598587], [-18.183959533523762, -15.891243977630543, 17.602424458014948, 17.602424458014948], [-1.601719228224298, -0.4062122480465071, -0.9661171302377476, -0.9661171302377476], [-1.5421576157014558, -0.44000763051978603, -1.0354306271582807, -1.0354306271582807], [1.5111926610152222, 22.14785362052203, -17.53047482267308, -17.53047482267308]], [[66.30571371757718, -49.87223151316558, 6.745392565998084, -36.12990052117215, -1.579166050818854, 14.506679326370703, 21.434769565307587, -0.5640406315889592, -0.49287064771683475, 71.10461610371125, 21.702638744055893, 21.702638744055893]]]