[[[-3.4475441212884372, -40.078189579202785, 8.8824987392811, 8.8824987392811], [-22.689282577386173, -28.09064160399741, 31.40330400594798, 31.40330400594798], [-35.085486612646804, -21.1235721562649, 15.193458530958146, 15.193458530958146], [13.232634006620115, -41.13208464653029, 13.396180614718805, 13.396180614718805], [-12.84011386200037, -44.24125771733656, 34.03892387541386, 34.03892387541386], [18.774707308946436, -62.05426373159744, 41.53211681195562, 41.53211681195562], [31.466873900577564, -25.431577391108004, -15.724164728099781, -15.724164728099781], [-32.55184335482032, 15.273731853640587, -1.7717545150279688, -1.7717545150279688], [-15.344098487122242, -28.900185032994624, 15.114271041680201, 15.114271041680201], [-32.46340865020066, -31.35300274399721, 45.077272420041865, 45.077272420041865]], [[36.04131667010017, -44.25875573358564, 36.05817623600029, 22.909985936506683, 16.51754690387066, -48.13679298432737, 57.100483816704035, 80.66947864530816, 21.82459181207362, -50.12897935412361, 52.74200278853204, 52.74200278853204]]]