[[[10.289630278498233, -26.43265281711831, 0.4251047336012279, 0.4251047336012279], [-49.006268888903364, 3.0516501995237877, 7.079397368657258, 7.079397368657258], [-17.75132967892032, -31.443884699200172, 14.477162544810733, 14.477162544810733], [-31.794290371614537, -21.352457499392692, 22.311986546781384, 22.311986546781384], [22.880533405938266, -18.295534637208263, -11.224045866687177, -11.224045866687177], [-32.496625521783095, -12.023162053026649, 31.798387883369763, 31.798387883369763], [-28.538927956677384, -0.22398976839383303, 9.981858422627148, 9.981858422627148], [22.495105592995586, -27.679067221984745, -4.394921109541513, -4.394921109541513], [-1.297216349477637, -46.68560013437927, 38.80929267670546, 38.80929267670546], [3.673067458907543, 27.564930186790153, -18.79277464866256, -18.79277464866256]], [[32.354981309767375, 64.13183243328398, 66.11025904599819, -23.55851994991602, 29.32990501564764, -57.10053780542967, 51.42370170759979, 35.22616528227567, -57.945545342192894, 32.57259090232183, 32.01715184518493, 32.01715184518493]]]