[[[-1.667675535845347, -0.22139603651861606, -2.275381153993278, -2.275381153993278], [-24.722047926050788, -23.934102458541222, 14.505797855488526, 14.505797855488526], [15.222220143519612, -19.439099857645278, 7.2321639890032134, 7.2321639890032134], [-24.941951876264877, 14.044561916375022, 12.759050896920934, 12.759050896920934], [19.579011502603656, -40.716965485712144, -2.6762442459065086, -2.6762442459065086], [34.33858976495001, 15.733331741580814, -32.69926985439308, -32.69926985439308], [-27.61351989318465, -13.441104832410243, 16.725663616014586, 16.725663616014586], [-38.916435735962736, -33.245842229800076, 52.91522455092409, 52.91522455092409], [-14.429671429696034, 50.013450163035145, -34.254875991292494, -34.254875991292494], [-31.572128918400207, 9.28466292384603, 0.5112805270788884, 0.5112805270788884]], [[0.270699360381061, 59.936315705509834, -38.1718055964466, -31.535372726801068, 74.73154345674125, 69.30350711386922, 40.682646714335206, -30.57664244705102, 63.427800432362396, 25.0673185954233, 7.765085234862399, 7.765085234862399]]]