[[[18.79488220029158, -26.633083144606058, -4.358001704209438, -4.358001704209438], [15.665050774507499, -21.652702097767694, 8.031742168716512, 8.031742168716512], [-0.7200840297091476, -1.3061223446331738, -2.0336156413939417, -2.0336156413939417], [-0.8233767151662912, -1.561520435570648, -2.0422164304558996, -2.0422164304558996], [-19.783236480282795, -10.689538346908435, 21.08207248400447, 21.08207248400447], [-26.359217867607228, -22.751328001104905, 14.29110045237382, 14.29110045237382], [14.345027906975353, -48.016229633651925, 31.95641680943682, 31.95641680943682], [-2.2298187568815573, -35.01857359806108, 18.05294581128591, 18.05294581128591], [34.97583060557033, 19.975849188635074, -38.29774521636883, -38.29774521636883], [-27.535554762640707, -11.8302266262735, 14.92009515342165, 14.92009515342165]], [[94.04763642057505, -60.08026349285774, -0.644167071517728, -0.34415489393310283, -24.352639992065548, 46.270512134086225, -51.53802701779009, 17.318536330363383, 88.2248054874248, 51.87832374918321, 29.3351166905886, 29.3351166905886]]]