[[[-19.672939005328196, -30.050290080195214, 16.37613201102006, 16.37613201102006], [-29.39813548684511, 21.961043456901482, 16.264084923681917, 16.264084923681917], [-26.90548202705616, 9.16841470219524, 6.200841535337343, 6.200841535337343], [0.07434176132416725, -39.96106933491672, 31.32399710451832, 31.32399710451832], [-33.83394934386695, 13.24223892046774, -1.142247112718198, -1.142247112718198], [34.31776282648486, -5.828268164253392, -22.18621733256326, -22.18621733256326], [-32.80249063209139, 5.522157271076128, 17.964366975896898, 17.964366975896898], [30.283609474746925, 48.631925031775914, -57.85688428001096, -57.85688428001096], [-36.82231766465106, -1.6571306997644935, 31.414769455946622, 31.414769455946622], [1.7395164883923606, -33.84735730170593, 6.288718313612675, 6.288718313612675]], [[43.33360338021593, -17.666729822362154, 51.13542423070683, -47.33568047451436, 53.94591826029405, 56.378579183564916, -19.077542858540145, 57.64555470894157, -27.93733902654847, 61.01530229952238, 18.983698686233545, 18.983698686233545]]]