[[[29.295316341222293, -38.244250802301416, -5.913151367238105, -5.913151367238105], [-45.81353602535028, -27.511371885698498, 53.49500227978648, 53.49500227978648], [-28.947505124157647, -34.91721550750205, 41.48248675646783, 41.48248675646783], [-44.21320693747109, -8.37830165404128, 36.753505599033915, 36.753505599033915], [-37.10985774081794, -21.85072104239082, 21.33122639769545, 21.33122639769545], [-42.51369505575228, 52.63263008103113, -27.063750597888692, -27.063750597888692], [-54.03797232408533, -49.595987308676094, 29.201838036941915, 29.201838036941915], [-38.71591719788265, -24.20750225320636, 46.09050553789422, 46.09050553789422], [31.192295570946317, -65.5222826032303, -6.007295518395569, -6.007295518395569], [-28.541319370353502, 34.891297201111996, -9.913408731220592, -9.913408731220592]], [[76.75957516365203, -24.147167867234565, -39.85383161294501, -24.054830494389616, 40.16460961479383, 45.929825831723726, 63.659321126292525, -17.93375036681324, 25.934933811514533, 59.553781387149535, 6.793868398663053, 6.793868398663053]]]