[[[19.20781772399244, -26.986419231421362, -5.175426897554347, -5.175426897554347], [-25.23159638882033, -29.849908874452172, 36.52950746666222, 36.52950746666222], [-48.98441321573193, -19.577028855302654, 49.506796349970706, 49.506796349970706], [-36.82912399899294, 47.95888225477778, -24.947686330720902, -24.947686330720902], [-51.748159652091694, -33.51372547185316, 62.778782286392925, 62.778782286392925], [-33.43162155425962, 48.43226155021663, -17.983274133985333, -17.983274133985333], [-19.83440393597565, -58.34703755908487, 19.55401339604668, 19.55401339604668], [-47.08467960252297, -8.143257460914182, 13.981664481994374, 13.981664481994374], [47.739892620271014, -33.00322299682985, -23.54427562590202, -23.54427562590202], [-37.26994560868995, -58.38900298780255, 32.56725087771055, 32.56725087771055]], [[21.563496809169123, -48.30265846235806, -32.790746287028334, 52.34126500078588, -27.84099298054507, 53.9962219852624, 49.232691771921736, 49.77661946375679, 83.75556470934168, 54.89619056861918, 8.963567534286472, 8.963567534286472]]]