[[[-45.451281745842834, -56.61479860817457, 73.1320020374995, 73.1320020374995], [4.3942680475219955, -33.65108772881409, 16.354158057887883, 16.354158057887883], [-29.924081996451328, -18.69696317072466, 25.339888334364044, 25.339888334364044], [-25.667190978467538, 44.710656142860245, -24.007764636242477, -24.007764636242477], [-31.819490669508074, -37.14126419244437, 37.91673600124783, 37.91673600124783], [-70.26331623914866, 1.4446802305464164, 56.25817861854831, 56.25817861854831], [26.060072137238482, -45.62388311886539, -5.88807672861796, -5.88807672861796], [-31.648467185217974, -67.49111852961673, 25.96327125139438, 25.96327125139438], [-56.0455886915749, -11.02643576942542, 16.28789527966733, 16.28789527966733], [-62.43118779910298, 34.90141055642595, -9.604069574560674, -9.604069574560674]], [[-52.124779699934095, 21.90589310336105, -8.833464300950714, 52.916764801848124, -21.18590996013386, -32.92913932525085, 61.74977629325525, 60.8524823993103, 63.767869635662144, 36.19296287830245, 34.886851315226814, 34.886851315226814]]]