[[[-10.438465952120852, -47.22999535490895, 13.88231210089602, 13.88231210089602], [32.93182542735469, -47.35050663184968, -9.408520157196985, -9.408520157196985], [-37.840830895948336, -23.193941352482433, 39.48346566743145, 39.48346566743145], [-32.499368781231965, -38.29289431568421, 23.620475340424555, 23.620475340424555], [-36.43378491932665, 17.833537945136495, 5.59577195988578, 5.59577195988578], [-25.45418481826403, -36.84881215395787, 36.502614446949416, 36.502614446949416], [-64.51880249154738, 28.426099236367772, -4.094851871093617, -4.094851871093617], [41.291445716356456, -21.134678686658052, -21.40701904614554, -21.40701904614554], [17.64521939928201, -68.65971152330377, 14.052615457334666, 14.052615457334666], [-41.03250427183173, -52.9316883788521, 66.73095493872033, 66.73095493872033]], [[36.042258649080466, 37.38078130760622, -22.01142951750454, 58.658619732695705, 72.2216398574252, -56.01322548582607, 60.15439038448177, 54.533312458785, 39.348148044392076, -52.46323494742617, 3.044700444599055, 3.044700444599055]]]