[[[-1.3193052812033341, 20.389367148885, -3.8643542391530032, -3.8643542391530032], [26.72169895341987, 1.3283823610452483, -6.999119485209045, -6.999119485209045], [-7.850693950509848, 17.487147970651076, -4.545792058932242, -4.545792058932242], [-23.46477088277824, 9.416633826722679, 14.560118244608617, 14.560118244608617], [-1.9322495370265247, -19.30369951114399, 6.041479080396825, 6.041479080396825], [-5.629937420941685, 28.431247662732723, -19.995626611414355, -19.995626611414355], [-5.884930749446717, 1.8513806128973016, -0.26202107300154526, -0.26202107300154526], [-10.219388943561478, 1.602205793453377, 0.9717144516177876, 0.9717144516177876], [18.78195043240651, 3.8305102400132656, -15.533569779957382, -15.533569779957382], [-10.221096606207434, 2.009117996585115, 0.6699960289075148, 0.6699960289075148]], [[-19.545727500412546, -41.70875724632582, 20.25901204537876, -23.535678725439716, 59.22971002970907, 53.717723915127436, 4.986846994923537, 8.752141001025471, 58.31407435733546, 8.763636284886541, 15.232865163632624, 15.232865163632624]]]