[[[-19.807890780149364, 1.8088427036131995, 12.677913037470566, 12.677913037470566], [1.6153423935662414, 14.811715241956847, -4.684649279137233, -4.684649279137233], [10.334024017250641, -18.044440421376375, -1.1049423096945805, -1.1049423096945805], [17.398371980563166, 22.326533702311448, -11.950032772957561, -11.950032772957561], [3.4176326593497666, 10.733959402986635, -10.15905528672534, -10.15905528672534], [24.68890723938598, 12.334132337100488, -25.876740487114404, -25.876740487114404], [2.0957107071052268, -28.403509147813075, 22.03047547697411, 22.03047547697411], [-23.299928314266438, 8.098653622851057, -0.15322092783002952, -0.15322092783002952], [6.928219229762575, 8.240331011923146, -5.336945306958041, -5.336945306958041], [-19.526115316296117, 8.35663774382395, 5.088198693922386, 5.088198693922386]], [[-17.7954919746408, -11.07253063859829, 62.73748439692777, -28.341732194758972, 13.58130825648833, 58.157008593452545, -32.36245010742817, 44.17617512797887, -4.428243989873627, 41.615750028449774, 18.342096739832865, 18.342096739832865]]]