[[[9.374893371680804, -15.269244759718925, -1.5391041772287453, -1.5391041772287453], [20.935014604548176, 8.223413053538717, -20.252508398322508, -20.252508398322508], [-5.463289478876344, 29.66350229225822, -21.359162977263022, -21.359162977263022], [-23.98298959001262, -3.3869673942477303, 7.071752132104751, 7.071752132104751], [-11.668139131726711, -4.097189802277705, 4.531709545735178, 4.531709545735178], [-11.171501837920568, -12.433585163962775, 6.679920109266302, 6.679920109266302], [-16.143914335520012, 8.443647872678017, -1.9811720963587007, -1.9811720963587007], [23.884980679561505, -5.0415505350632985, -15.968915154466165, -15.968915154466165], [-1.4809167806829686, 18.284909843280804, -3.578676875999896, -3.578676875999896], [-1.5919903554241492, 24.504273256490304, -15.227360274660636, -15.227360274660636]], [[17.277383283588176, 42.607547038668834, 43.65145761180825, 51.959485203539245, 13.559923622368443, 16.246459276746787, 15.628655614941575, 31.117825530810688, -57.72704640452477, 28.20189634414389, -8.5263665591456, -8.5263665591456]]]