[[[18.25685885456841, 1.581202771213618, -14.258077948392064, -14.258077948392064], [10.831649298380864, -1.695039429168317, -7.712399469147176, -7.712399469147176], [-2.8699397464503047, 27.656937721904818, -20.427114310387797, -20.427114310387797], [-1.1330941652098818, -19.307425294180057, 5.368941466452677, 5.368941466452677], [17.411227771171166, -11.153115026052928, 3.9314626822612415, 3.9314626822612415], [1.7344023748578807, -9.587267144110019, 1.7159354786029526, 1.7159354786029526], [24.890802371555292, 0.7680055974566933, -6.3638825564431585, -6.3638825564431585], [0.5940575880290484, -7.670344706804027, 1.0619873575132486, 1.0619873575132486], [-4.7912701119335, -9.165584721206438, 3.4424325673808065, 3.4424325673808065], [12.220794337281665, -22.0177815255112, 4.8162653342105655, 4.8162653342105655]], [[63.09397640831126, 10.37987018638578, 56.425203252668865, 58.48775972972919, -14.298953326104328, 7.766862148911609, -49.42710486097797, 5.801559123015551, 8.84332245082707, -13.256406282875064, 12.830121158886575, 12.830121158886575]]]