[[[48.753505935411845, -14.893614184131353, -32.50699245842605, -32.50699245842605], [-28.422799904121934, -22.520472410655334, 35.35568166504187, 35.35568166504187], [-35.724569053680256, 25.43439814287166, -7.410753356198642, -7.410753356198642], [-2.0457734597535393, -29.320195404888448, 6.082280058100849, 6.082280058100849], [18.731078834680723, -48.70484154756772, 30.50112008287359, 30.50112008287359], [-41.58048801834115, -25.46599516240492, 18.49524108930055, 18.49524108930055], [-21.528141432594115, -35.4380551429665, 38.45362730265364, 38.45362730265364], [23.141701328527546, -34.11151967327798, -0.4738092945970738, -0.4738092945970738], [-22.222916499390855, -24.809151162788943, 21.537667776156294, 21.537667776156294], [20.831613879949938, -24.399885598795297, -8.715090868424467, -8.715090868424467]], [[54.34013212897832, -43.068346795833676, 54.671816586369985, 25.022760038159053, -44.709619193200446, 56.45396709083565, -51.21178939049554, 29.622529266799308, 39.35542563217766, 26.452571949425586, 49.583862816386706, 49.583862816386706]]]