[[[43.103443064332424, -26.467679616755888, -19.957357904707187, -19.957357904707187], [21.673948158938884, -2.16268933566966, -16.26054436338801, -16.26054436338801], [7.845554348786026, -35.85025859025475, 4.92675052997241, 4.92675052997241], [-17.023755966667657, -29.28343182293232, 14.772301370608824, 14.772301370608824], [20.53526021001594, -32.92872828417739, 17.976507407044917, 17.976507407044917], [-33.87087422266903, 21.16123103323067, -3.8223313202334057, -3.8223313202334057], [-33.97633258976662, -11.202133027989321, 12.619934044844872, 12.619934044844872], [-18.47913349403158, -42.61825699653128, 43.48579491927791, 43.48579491927791], [-40.5425579442121, -2.5258660814429508, 33.95925857884138, 33.95925857884138], [-23.32119613284308, -34.20707122397842, 40.02307124935443, 40.02307124935443]], [[48.115196732467474, 16.65939679412137, 33.47205626657583, 56.19359260165391, -36.735704543440086, 56.50545320647179, 39.52586121424074, -41.148980757844946, -31.090644501283943, -46.7029180930994, 69.43823629613854, 69.43823629613854]]]