[[[-0.44157876839104465, -1.6372959556935887, 2.387966954036247, 1.0620207530666208, -0.0614331464005049, -0.0614331464005049], [0.41473369348059475, 0.552294467052272, 0.10968963589891384, 0.09683067712469219, 0.40326212989981103, 0.40326212989981103], [0.44926902716953965, 0.6229272719555917, 0.3061922341736388, 0.3443366229288298, 0.08138683897063581, 0.08138683897063581], [-0.6034764695639677, -1.0454725331662884, 2.0902667682651965, 1.023121904060162, -0.15722623819773365, -0.15722623819773365], [0.41387490702156854, 0.30720648923121746, 0.25480562233445214, 0.06856754308217006, 0.22328357114239386, 0.22328357114239386], [0.11744402495193085, 0.6293488404813514, -0.9150944197511025, -0.2034434123608913, 0.22988059426492866, 0.22988059426492866], [-0.24842498351007483, -0.17814983292842806, 0.39314346484075885, 0.5731843285470982, 0.34576004297170676, 0.34576004297170676], [0.3403514307325764, 0.3071143562705434, 0.36415851728116055, 0.4907994107055333, 0.24090421666387596, 0.24090421666387596], [-0.45167429243177093, -1.1964475712562685, 1.9026474159659625, 0.9299453086330928, 0.052252096067042925, 0.052252096067042925]], [[5.288851388296145, -1.2804946091606657, -1.3072218256424215, 3.7385583429719658, -0.7559907194149086, -1.509553464766504, 0.43511678706974805, -0.6131408187424265, 3.3914266323917226, -1.6114843109860726, -1.6114843109860726]]]