[[[0.5950185087880456, 0.5159712962939873, 0.15283214315836366, 0.042373781273192565, 0.17800255070279006, 0.17800255070279006], [0.533210572595219, 0.5679925007484892, 0.17038211264747283, 0.33805058660949233, 0.2521535005701016, 0.2521535005701016], [-0.23336939496993334, -1.3623694634182617, 1.713152252126806, 1.0206578203384349, -0.2624149306861077, -0.2624149306861077], [-0.5122105112634919, -1.2857436525205281, 2.0760184885218718, 1.2021351623966612, -0.12344939878006471, -0.12344939878006471], [-0.3344339560747801, -1.1938329768706766, 1.775377063294853, 0.7787496992949061, -0.23165038418870548, -0.23165038418870548], [0.4844302068384334, 0.04523743251151363, 0.12539474259323657, 0.10082779179046936, 0.15896806554043952, 0.15896806554043952], [-0.3102885764753644, -1.3166339462114607, 1.6687129575253008, 1.2257601016712254, -0.0277243263001958, -0.0277243263001958]], [[-1.8991121316600077, -1.8206788892801735, 3.1747037866641787, 3.995803301488414, 2.9186485835398193, -0.6534900413406913, 3.176872240504767, -2.0543406190422226, -2.0543406190422226]]]