[[[-0.23442023866231979, -0.7299843631461378, 1.002071793104864, 0.6732818728462544, 0.033087024617947866, 0.033087024617947866], [0.4760536015184558, 0.3421796432496696, 0.035382035699072535, 0.26388208995509516, 0.30568041790094136, 0.30568041790094136], [-0.47032203957965607, -1.1737780356793188, 1.9494175826697662, 1.159166794793518, -0.2616894581108806, -0.2616894581108806], [-0.052735930166690675, 0.6068804916579573, -0.526787976046649, -0.034702168743426784, 0.2132975813277598, 0.2132975813277598], [-0.5265986303531711, -0.8714747760531846, 1.5820458982989676, 0.9650475822055001, 0.25045756720818, 0.25045756720818], [0.4073584287990408, 0.38664464579610847, 0.18540220404817942, 0.39635782429570326, 0.3062171079041493, 0.3062171079041493], [0.45300868486660023, 0.6020427525247201, 0.13845987307155816, 0.221980582233148, 0.5188341083614889, 0.5188341083614889], [-0.4167646579451094, -1.2077944941304057, 1.8936345303905466, 1.098793926156775, -0.25675290452515814, -0.25675290452515814], [-0.17914860893097642, -0.5143519903574623, 0.6225951370063845, 0.679077405141377, 0.10701095415216261, 0.10701095415216261], [0.5323756760942384, 0.5399179446308937, 0.3243547239799961, 0.36828612702356556, 0.13189733312377094, 0.13189733312377094]], [[1.4119524368919847, -0.7761499371199361, 3.6250180077461907, -1.1856581255068013, 2.452615605110304, -0.7672644213004401, -1.305313696486692, 3.501475886019021, 0.8700919555249415, -1.1073382918301105, -1.1450792433759163, -1.1450792433759163]]]