[[[0.5013906364216577, 0.37259376495354757, 0.39352076778056744, 0.15507875522932754, 0.46242919552841866, 0.46242919552841866], [-0.46319439449679684, -1.2258290601148785, 2.1319379083055976, 0.9420952230085559, -0.17465258473321293, -0.17465258473321293], [0.44824599727281716, 0.35287354780178526, 0.31091310048563725, 0.24558531463984232, 0.3736714893944169, 0.3736714893944169], [-0.4959233051569588, -1.1847834911546882, 1.932290328667559, 1.1295759175018487, 0.23487917868003, 0.23487917868003], [0.5024352362923407, 0.2916352802781517, 0.49424117744486123, 0.3374450225556046, 0.3326561322507008, 0.3326561322507008], [-0.42535467704469077, -1.2025480653648228, 2.0382289875797466, 0.9164306110004037, -0.1907302052778764, -0.1907302052778764], [0.29263867417974965, 0.46498861015871545, 0.4499841815722932, 0.4513906388482774, 0.3414114184049531, 0.3414114184049531], [-0.38312451412145626, -1.3034563673949635, 1.9316502109991331, 0.8627647568058012, 0.18687097465118985, 0.18687097465118985], [0.5545020964972792, 0.5497198413325532, 0.1432095660107068, 0.33935983386317237, 0.13210364783400788, 0.13210364783400788], [-0.336360186431527, -0.37071372498182065, 0.7467660068134936, 0.5647922142203641, 0.350540489600662, 0.350540489600662]], [[-1.2278723778409448, 3.575120884940524, -1.0343930928353304, 3.267576844026946, -1.0753202975905405, 3.368427933296864, -0.8672591742042529, 3.1774534235503173, -1.3491336335488482, 0.8068469124316057, -1.385168254604349, -1.385168254604349]]]