[[[0.6236185751519886, 0.2817919598120571, 0.23123457427346605, 0.10986806655360472, 0.44398832196589966, 0.44398832196589966], [0.5230479181809475, 0.5374218684021879, 0.3291250399665599, 0.5039782513212757, 0.4914953647695226, 0.4914953647695226], [-2.0060290425636786, -2.6382318802409905, 2.955524429825297, 3.344621933667191, -1.812168888344993, -1.812168888344993], [0.37279039206277825, 0.7203884087387775, 0.46590525236881764, 0.14699295147723787, 0.3328974434264608, 0.3328974434264608], [-4.764286956770919, -6.642849312237539, 7.1824792205378145, 8.991818602786374, -5.906546704979373, -5.906546704979373], [-0.7626226860309259, -1.7783429048565267, 3.143658478617041, 1.7303678276952328, -0.33726136314070776, -0.33726136314070776], [0.34887417927687414, 2.1242707916105585, -2.9215368499493186, -1.3118469162491981, 0.6031612481274878, 0.6031612481274878], [0.35910137266044284, 0.7025139226935426, 0.40080045068823195, 0.18613483347620297, 0.562891281264981, 0.562891281264981]], [[-0.0744282979318996, -0.14002164913446988, -1.0626133663953963, 0.06588107150095143, -0.3994824846047874, -6.140371414386199, 5.955622052515112, 0.16608503794182297, -0.0443491306267772, -0.0443491306267772], [0.10474238220185607, -0.20817992714752315, -3.2794737144007917, -0.1143055151371723, -11.077398367827454, 6.712886773591688, -5.947570868557614, 0.10775025490609882, 0.15681869983655417, 0.15681869983655417], [-1.246798801657919, -1.6077952719497166, 3.9375326864766493, -1.5309664626453614, 11.11991466545708, 0.06793318989295155, -1.3962551717869636, -1.4044211365846568, -1.4340793660401439, -1.4340793660401439]]]