[[[0.7236516878853964, 0.317860344530975, 0.5093751562359293, 0.16883674797639217, 0.5141792300553842, 0.5141792300553842], [0.6113527591657142, 0.5583406741340415, 0.6200650846280428, 0.36464739533484186, 0.21008190626456444, 0.21008190626456444], [0.7199304069452697, 0.6250770783632861, 0.44701496061237905, 0.2549792910510677, 0.30155248282183117, 0.30155248282183117], [-0.8112606688115772, -2.0563685075885885, 3.373639103980338, 1.673278621147524, -0.3409551973051558, -0.3409551973051558], [0.7318621344384865, 0.32022338974794, 0.48902295082362274, 0.3791364672014062, 0.5183701017907067, 0.5183701017907067], [-11.659574612305923, 3.800310587694636, 12.149574616850565, 8.218140305818801, -8.781806741819954, -8.781806741819954], [0.6910461592493696, 2.155053340069814, -3.4692401056349467, -0.9993813416745752, 0.5685596757746945, 0.5685596757746945], [0.4311324141645287, -15.293195191693973, 8.766145734931065, 10.375822653128425, -15.475553008820057, -15.475553008820057]], [[0.18378247914081008, 0.17358533613305563, 0.4072483001619058, -7.420728228476451, 0.48638724766908764, -1.2610079768323756, 4.619724968325025, -1.191307281359746, 0.23112499624820804, 0.23112499624820804], [0.9570737023288765, 0.9916676942499797, 0.7346565115816377, 11.132114795738877, 1.0342621439118007, -10.249983705484473, -10.185671557965177, -9.543257315223366, 0.8358972821019792, 0.8358972821019792], [-3.2499731801806964, -3.668538614586667, -3.583768933036815, 0.9348427471220393, -3.293535430662521, 10.73381805344391, -1.0569498644115156, 10.053613895846002, -3.715930357687625, -3.715930357687625]]]