[[[0.88831125994271, 0.29250386945938056, 0.3600798043588078, 0.3545469427493131, 0.4348626771000998, 0.4348626771000998], [-9.202536001767642, -14.101839369209538, 19.546127742650157, 20.962116476822622, -31.290462815198136, -31.290462815198136], [0.7901975312920299, 0.39780987070667556, 0.6084913658566959, 0.22454311710418312, 0.16555601682346088, 0.16555601682346088], [0.7524138318685143, 0.28599868185947114, 0.6769140337693126, 0.1437230310188593, 0.29320457332990735, 0.29320457332990735], [0.845822134222122, 0.43756785302732265, 0.38698469373308486, 0.11075369833276993, 0.45431206581261957, 0.45431206581261957], [0.7134115862041563, 0.518328373663643, 0.4866936838344921, 0.44692104999954646, 0.21248064292743823, 0.21248064292743823], [-0.6940527677592851, -1.9379190443668668, 3.3389697907643576, 1.7112056453110256, -0.21264669599272654, -0.21264669599272654], [-0.611777782293296, -2.0461000740654693, 3.377703017739484, 1.8850494785595526, -0.19483275663633987, -0.19483275663633987], [0.6319462892567015, 0.647276866780124, 0.558102467020804, 0.07015746205731192, 0.08299107147589681, 0.08299107147589681], [0.6813863885143011, 0.6013805795682896, 0.4504218386627303, 0.4841012322586283, 0.12887495685806133, 0.12887495685806133]], [[0.6342767067329677, -1.398748194688757, 0.884399245244759, 0.41956949576841823, 0.8414804351654508, 1.0059910535630732, -7.673979317206498, -4.2413448344208335, 0.6465212962278515, 0.7280695267760777, 0.8293288913242083, 0.8293288913242083], [-0.954612238103378, -12.32424194708369, -0.7072272015273432, -0.6032092331683425, -0.864463960966826, -0.9474865299871398, 7.3753775094884375, 7.602222929308938, -0.8488911349295343, -0.6520396553996719, -0.7884982793645803, -0.7884982793645803], [-1.5376776270592987, 12.510104104727002, -1.5183527662541736, -1.4924011683673257, -1.5662091520016947, -1.1828274487906802, 3.2412253883829134, -0.7945310212729714, -1.302760886833348, -1.3334005687495896, -1.259549830347089, -1.259549830347089]]]