[[[0.687133201132466, 0.7247629730323193, 0.6803150741932311, 0.11096033931287097, 0.2654784607654079, 0.2654784607654079], [1.0154576102425577, 0.49043310741724033, 0.33939392284765024, 0.33952840958523295, 0.133473992792002, 0.133473992792002], [-14.461929903548814, -3.0390975164233502, 20.044761245586223, 17.13499954372984, -26.127788505622597, -26.127788505622597], [-1.0891034805275783, -2.5035405404953255, 4.151038900518776, 2.053117978334569, -0.09473283834860351, -0.09473283834860351], [0.6391236203579655, 0.7340552260546964, 0.5879021631317307, 0.5371740172688098, 0.4219530878421421, 0.4219530878421421], [-3.9782251925539103, 14.372296299559414, -3.6098003025127134, -3.684095398232764, 2.6343741734267496, 2.6343741734267496]], [[0.6786491094195747, 1.009052504593782, -2.1166957018911643, -10.642713602313519, 0.6367765796710869, 2.016987089688727, 1.3920326479693903, 1.3920326479693903], [-3.2954944739498413, -3.749698022456573, -9.529376871420407, 19.294061224673673, -3.111921082552623, 8.617675074152627, -3.55546601805732, -3.55546601805732], [-1.9024010263105788, -2.1370058104788012, 11.788156755864133, 0.6204049952557362, -1.880244983273977, -10.130055234031447, -2.2131228486398595, -2.2131228486398595]]]