[[[0.6858067249808196, 0.6064591980214887, 0.5136044808887149, 0.48943164116873933, 0.1283816448371905, 0.1283816448371905], [-0.3037123115484392, -1.793089979624329, 2.299613171804038, 1.3130278872592738, -0.1636129776510493, -0.1636129776510493], [-0.6750463980254054, -1.8489785618513623, 3.0644410666221993, 1.5579948312268759, -0.13873584487871127, -0.13873584487871127], [-0.5785219195297949, -1.9321882405478477, 2.92195364066315, 1.6394957641049064, -0.09484127276817313, -0.09484127276817313], [0.29553062487646253, 0.6797189921705685, -0.393113157886253, 0.37758910731078305, 0.06057621541459848, 0.06057621541459848], [5.070191988040787, 6.82172199604498, -7.579770350224032, -9.402589116169688, 6.129038003895207, 6.129038003895207], [0.3760643128510058, 0.773724239790153, 0.4174694022060526, -0.019221115039754152, 0.5810096037611684, 0.5810096037611684]], [[1.0628168155790736, -3.494838629052623, -4.266178472411097, -4.716441894094226, 0.7872909458484594, 2.2456204718908843, 0.7081607019580525, 1.3030838629460217, 1.3030838629460217], [-4.226228265707467, 2.712988472461871, 4.635065901394586, 4.252968605595159, -4.7375747243782245, 11.96064973477459, -4.277755493505236, -4.686002250958399, -4.686002250958399], [0.2085836582992793, 2.0879576583406814, 1.4411583589295969, 1.4546211109818272, 0.2911227119153548, -12.472133546175684, 0.28766659770677916, 0.3915856430569829, 0.3915856430569829]]]