[[[-0.7931169563380495, -2.4823502459061357, 3.862911115440517, 1.9898757536438536, -0.32771527200900685, -0.32771527200900685], [-1.7207813402322054, -0.9763822444394687, 0.0622584065836373, 17.421730728697124, -16.887327499585112, -16.887327499585112], [3.5972938520029762, -15.769901494589714, 5.2357337522786915, 6.8977974969039515, -10.121533846984901, -10.121533846984901], [-0.2289217017770072, 2.498731851514458, 0.4721833566840593, -0.11561828997562751, -1.0161431544616386, -1.0161431544616386], [13.887124799372412, -5.000541133998311, -15.222440260268483, -6.449782197667384, 9.913305302552162, 9.913305302552162], [7.258329792337978, -4.53065213995153, -1.4152762023287067, -12.721136326663315, -5.593173344497509, -5.593173344497509], [0.3805214009635602, 1.322871192699922, -2.247040864726603, -1.2050070146312695, -0.001670654834296215, -0.001670654834296215]], [[-10.26922577488515, -1.4720007026856528, -1.2729352667348988, 0.34819243263433935, 3.5529453787738827, 0.5284983009798088, 1.00202795137151, 0.5672978231240015, 0.5672978231240015], [15.81995849662758, -9.946222221934145, -7.718262087792722, -2.6647494546334864, 10.89916874752296, -8.508918218028118, -5.033848062610193, -1.511430195519135, -1.511430195519135], [-3.096670229005959, 8.473519703336803, 7.522926513276679, -3.171397035825927, -10.420313948236158, 7.126581135311297, -1.101093705524524, -4.377282761680837, -4.377282761680837]]]