[[[0.6365540343464782, 0.33823447052410666, 0.37414577879916444, 0.27907854077344796, 0.5703991507032927, 0.5703991507032927], [-2.9827760425517122, -5.995199798891665, 4.274808819413192, 12.936721262877503, -8.09024337985324, -8.09024337985324], [0.2999751987913161, 2.0523846868118443, -2.803238992938237, -0.7993967297380175, 0.6196050170444218, 0.6196050170444218], [2.134534433011924, 4.0988865307707565, -3.0572439186643976, -9.015219894238035, 5.896959779249192, 5.896959779249192], [-0.07959841038385049, -0.9677916251284885, 0.9968489596464238, 0.828225322531313, -0.4797590183188694, -0.4797590183188694], [-0.597329102980244, -1.1095342797493588, 2.059759029111637, 0.9333505612242942, 0.14641178277732192, 0.14641178277732192], [-0.8128900851235948, -1.652320670509226, 3.092002461069023, 1.347861199326051, -0.338050611055027, -0.338050611055027], [0.3424607268830932, 0.31529703529128733, -0.4205255519673747, -0.08814372652783468, -0.067222713965964, -0.067222713965964], [0.6093962994935356, 0.4992441997246335, 0.07027259889934928, 0.44435270722458675, 0.3112498707829465, 0.3112498707829465]], [[0.3514861507804973, -2.305243060250422, 3.324685579180256, 1.8642219496796615, -1.8065759090543763, -2.1806988951831396, -5.518301500095296, 0.005893784869367558, 0.20569772606602735, 0.5508317158250954, 0.5508317158250954], [-1.3992933675830708, -10.581009791149366, -5.913211514766069, 6.088766178521564, 0.3866214016787609, 2.143130892875016, 5.504619181161605, -1.659705856682331, -1.533852176231853, -1.776009192476849, -1.776009192476849], [-1.0690817906887273, 9.71146761958052, -0.7318953484896025, -7.749610839008865, 1.3487568328209851, -0.09339857719407275, 1.290770248528933, -0.18822530517859296, -1.0976133331033426, -1.05300191438825, -1.05300191438825]]]