[[[-7.684165710347012, 11.67394207784346, 3.2086423732494347, 3.047133903959908, -2.972480013740799, -2.972480013740799], [0.677612695589794, 1.8404275932010017, -3.2559786379279, -1.374848747789162, 0.4835921885191529, 0.4835921885191529], [1.1177635553966454, -0.9850820803219439, -0.4841672769646018, 0.08672442183119604, -0.5106476268113505, -0.5106476268113505], [4.572640055158218, -6.031882584593434, -1.2442949906087102, -0.997701480773226, -0.8241237625896303, -0.8241237625896303], [9.358245218715957, 10.558956658469679, -17.458478382215137, -15.548781012614176, 23.585070449556547, 23.585070449556547], [-0.6385922308698307, -2.21350335961795, 3.3291113812283024, 1.9053257626405031, -0.21990727162098525, -0.21990727162098525]], [[0.21227124735217806, 3.8868294005679043, 0.007943793471893387, -0.00960677141217934, 1.5762233651343232, -8.206497883183998, 0.4409091711115249, 0.4409091711115249], [-8.130625613934498, -7.149048360707527, -3.0332562147348763, -5.637307511457111, 14.980718939511059, 7.599790425335317, -2.825139218092887, -2.825139218092887], [7.501103045754077, -0.9342024630293456, -0.10587627265934914, 5.161980583950682, -15.61487504416949, 1.1718111637990805, -2.3714803549416077, -2.3714803549416077]]]