[[[-0.5708422553341779, -2.368383212486026, 3.4347607899075854, 1.5250985391892193, -0.2199955260614179, -0.2199955260614179], [0.6568871525045309, 0.5661660915988692, 0.2300298711170407, 0.41222731665141055, 0.5265995449818949, 0.5265995449818949], [-0.4639936123231563, -2.265556607385661, 3.038474806327407, 1.8469679258991043, -0.2954021436414723, -0.2954021436414723], [-4.935422518925149, -6.928760614993223, 7.418569868143354, 9.365032998521306, -5.810777202339207, -5.810777202339207], [0.8356397793495193, 0.26234871012529554, 0.4023426626116744, 0.30562962085072537, 0.329990186016848, 0.329990186016848], [0.8161391644161549, 0.48264303060740343, 0.3634176902465717, 0.09542210853859263, 0.28167973658052714, 0.28167973658052714]], [[-6.426551633306267, 1.4377710535634496, -5.7166472435458395, 0.4066498128321532, 1.2586376490955538, 1.5316107068119769, 1.5830123155977953, 1.5830123155977953], [6.363724594288913, -1.654620772313705, 5.456877649768038, -12.316497650867138, -1.134581751709685, -1.4366826957255667, -1.525551878300078, -1.525551878300078], [0.9059546034846204, -1.9080610241141316, 0.6043250984834226, 12.521803270676463, -1.6367074229288106, -2.026983936016904, -2.158879814331333, -2.158879814331333]]]