[[[0.4648431845919704, 2.2484357409795566, -3.1621282936932746, -1.3253839806766492, 0.28809163846091945, 0.28809163846091945], [0.3022216368442173, 0.5757923087429159, 0.6919948666997874, 0.11041612442686598, 0.08039230801753859, 0.08039230801753859], [-3.664580629007358, -7.216113868788418, 5.2620114910249365, 15.68676678403493, -10.110023625245875, -10.110023625245875], [0.32316464805963824, 0.35604250629755035, 0.48177920632527127, 0.5405031199129585, 0.43509661874565597, 0.43509661874565597], [0.4317403837547815, 1.9624355445903845, -2.8241798340666655, -1.218529084039526, 0.30878065732482535, 0.30878065732482535]], [[6.359594571318296, -1.896214428491816, -5.259558637720691, -2.009635212574508, 5.053279778010815, -1.7193919515224774, -1.7193919515224774], [-6.826077362042669, 2.1009162830667556, -12.794323477347854, 2.0098857067550777, -5.044218934556325, 2.036227764192514, 2.036227764192514], [-1.196971073046346, -2.0333596332630988, 13.04148594619318, -2.0023312901436316, -0.9392145197605644, -2.2711006920529697, -2.2711006920529697]]]