[[[-0.22949725950080335, -1.3143223752159676, 1.7575308051690686, 0.4550704835562003, 0.24196506409660704, 0.24196506409660704], [0.5136804675010317, 1.771290452619393, -2.8791448317703647, -0.8552153429467105, 0.7096258553172369, 0.7096258553172369], [0.6906593452953192, 0.42984941144155137, 0.5077503711332371, 0.45210726390423583, 0.4965098382164581, 0.4965098382164581], [0.6816153908725304, 0.538496272498099, 0.40574119603564146, 0.3903239905798732, 0.514261185828805, 0.514261185828805], [3.6565264987852926, -14.719895768469724, 4.530665271537672, 8.67978962699498, -12.964928825830174, -12.964928825830174], [0.6217465832060688, 0.581672377159749, 0.5516288581239847, 0.31322326782497706, 0.1780996531479533, 0.1780996531479533], [-0.8469258544319495, -2.2843497241769004, 3.724822945875153, 1.6467192057140834, -0.3821803676379395, -0.3821803676379395], [0.7802764962160751, 0.21793103757341248, 0.46327091209097304, 0.14401721316955335, 0.31968610048200274, 0.31968610048200274], [-11.839268591693125, 2.60762145507513, 13.662755634877819, 10.362879813974736, -15.406147026564952, -15.406147026564952]], [[-1.5673884162196499, 3.0886318570005646, 0.6872442649940647, 0.6728478191448326, -1.5265428293627534, 0.6856026564432307, -7.738922818820555, 0.41389688292752813, -2.6947788468618334, 0.8262816169831732, 0.8262816169831732], [2.1759550832489194, -6.42285176575059, 0.06415014267561521, 0.003945571613321274, -9.406917086455385, 0.07015666307030766, 12.843747318922189, 0.43275619935156845, -10.033687920993565, -0.05914889753462434, -0.05914889753462434], [0.1521019245415811, -1.3011739396512643, -3.123341553095307, -2.983334674092599, 9.651830618567473, -2.8554695099622895, -1.4672828196653818, -2.6293724186494853, 10.317783053963463, -3.0868473243431205, -3.0868473243431205]]]