[[[0.6174656683397459, 0.5160346325538201, 0.26078681060658626, 0.1293592210366819, 0.5651658258540472, 0.5651658258540472], [-0.7994514861855336, -2.0959948910208115, 3.356826098943084, 1.590178082261613, -0.3376706260452982, -0.3376706260452982], [0.6375785409306304, 0.4927132430375968, 0.10211813314111663, -0.017503407211125862, 0.3245501277443989, 0.3245501277443989], [1.0368723889761324, -0.5476379218347369, -1.0841954383919064, 1.7074937381929935, -1.996452361738639, -1.996452361738639], [0.4427479026123857, -13.452083342758131, 7.934108315057009, 8.543811566947587, -14.226869799552244, -14.226869799552244], [-0.6631300019695533, -2.3782964231912342, 3.3073338345424155, 1.9074704335319566, -0.2971709625524825, -0.2971709625524825], [11.951765438290407, -3.3321311227887236, -12.93513836219123, -8.89163466109425, 10.451333969476758, 10.451333969476758], [0.6500629266048604, 0.595212483829661, 0.48052854084139984, 0.36681433810751163, 0.5147717701272289, 0.5147717701272289], [0.09192186306488952, 0.8325453193362253, -0.18723918866791378, 0.7722937726069409, -0.8145762349656505, -0.8145762349656505]], [[0.5040506595828694, -5.224456242552261, 0.7011002768280107, 0.10926768746421327, -1.8894709888197863, -6.37962306734761, 3.2932555151372673, 0.4958992533087141, 0.3432519078900077, 0.5076852437128326, 0.5076852437128326], [-2.3484538835970272, 9.648894663170452, -2.357283052427528, -3.7782349721488213, -8.83106350324715, 10.67175193043899, 9.639356026897786, -2.5392023519537346, -3.388113905919802, -2.5108392775897532, -2.5108392775897532], [-1.4980550735750575, -0.5176349042118553, -1.4276603169232658, 1.1394673647684872, 9.366891197949766, 0.19706775537438004, -10.722019052046075, -1.41058887583922, -0.3384306789657522, -1.2919604668284443, -1.2919604668284443]]]