[[[-0.8029635361294388, -2.4092402943465907, 3.667006448383532, 1.5529942088695703, -0.19009698081067736, -0.19009698081067736], [-0.9985640963933022, -13.841545578774843, 9.874065773470424, 10.3403482597291, -17.0817710048297, -17.0817710048297], [-0.7676143785815177, -2.0405677476419375, 3.146538808335048, 1.7119897109245668, -0.09844897757496114, -0.09844897757496114], [0.18131782853225265, 0.657535400058998, -0.3397880684735339, 0.7470999268580649, -0.6235541260717308, -0.6235541260717308], [12.216635977582467, -4.73345221472538, -12.252961606182087, -7.750836050682156, 7.227004868375634, 7.227004868375634], [0.5984343087627443, 0.8054217858520589, 0.22734413714613647, -0.00816315832947755, 0.29343051155650873, 0.29343051155650873]], [[-7.147086248935774, -1.5174809096063608, -4.403275437913507, 1.3734285844884684, 1.9909613216631783, 1.338321047116928, 1.2314651426052297, 1.2314651426052297], [11.565929495830447, -9.139816982040156, 8.49653853000863, -5.520866693677107, 9.519690466939956, -4.85988496930391, -4.952140992679698, -4.952140992679698], [0.37927731888585803, 9.616337505379734, -0.35672597969097236, -1.5509109614507361, -10.867552977505921, -2.1352973662595214, -2.184881229412314, -2.184881229412314]]]