[[[11.922014876517302, -2.3386125881169084, -14.142545011510421, -9.94784825770627, 15.61408337950012, 15.61408337950012], [0.581731137362966, 0.42675379812288416, 0.42288422377870055, 0.1448753476514992, 0.20626558908038478, 0.20626558908038478], [-0.9315798193985688, -1.9874447327744866, 3.5011948959104426, 1.7333338583893254, -0.36155657729385043, -0.36155657729385043], [3.529494151384924, -14.702570048143052, 4.609000163127484, 8.44783553984974, -12.089107151447704, -12.089107151447704], [0.6606969778318151, 0.41543266298793496, 0.33010989208893654, 0.05428321861780864, 0.23313963771689733, 0.23313963771689733], [1.0793610448861046, -0.9980984345380632, -1.1423925045086243, 2.538196001925501, -2.4896199849104055, -2.4896199849104055], [0.32570660769651094, 0.8715110592532963, -1.6759738752739852, -0.2250349260298339, 0.03946004225618928, 0.03946004225618928], [0.4978516323695365, 0.0591081685109429, -0.7523647861747533, 1.639517135067476, -1.9579634124009067, -1.9579634124009067], [0.6263836078471906, 2.338752503072465, -3.4103205912648566, -1.3296411479452968, 0.46286142374285544, 0.46286142374285544], [0.48752618187020064, 0.6614420850642616, 0.3611983028402165, 0.15632112832691933, 0.1259965066417966, 0.1259965066417966]], [[1.636167645040665, -0.08413098565163071, -7.051543372906273, -3.2162621955812987, -0.059901509728530394, -0.7742990280296894, 0.21680370114169562, 0.11939549478811146, 4.680791332068276, -0.035956715309613564, 0.10452485323487429, 0.10452485323487429], [10.136482303693603, -0.3605539605957199, 10.209238883277068, -9.197849589302006, -0.4631354887272191, -2.497479949338181, -2.0963152237610334, -2.3085810059441054, -10.059240002535635, -0.62755435232271, -0.6034623469328694, -0.6034623469328694], [-10.79047741438774, -1.8737098259457519, 0.2108130336028009, 9.445741214479073, -1.9263253967867322, 2.3784106477320597, -0.6043291702660978, 1.1025782482017612, -0.4796381103821743, -1.8890358239267255, -2.116331451378519, -2.116331451378519]]]