[[[0.7313607307203192, 2.3919251111801305, -3.6725263404059394, -1.3991208600514278, 0.5801894395530605, 0.5801894395530605], [-0.7863191235102882, -1.9143747349602058, 3.229170232170764, 1.5398235154590751, -0.41681693622687493, -0.41681693622687493], [1.5720485792349579, 14.867247507605162, -10.9145591752468, -12.1332797441986, 18.222976282468032, 18.222976282468032], [-12.182527494160782, 5.3314781816224555, 11.757528532897464, 6.962672247069329, -5.478813303216818, -5.478813303216818], [-0.8779571534929775, 2.5269134652024245, 0.3805017078229831, 0.6114007230997422, -0.6474817362508898, -0.6474817362508898]], [[5.880070688132951, -6.122473860673493, 1.3619804292141313, -1.743234962781953, -0.3953328540365411, -0.765793174891357, -0.765793174891357], [-12.625628442557364, 9.338005025355455, 10.413415905797931, -10.084836554104688, -2.0913954103065717, -1.3626813021253565, -1.3626813021253565], [-1.6375976834137476, -1.8714840010314857, -11.256923656088293, 10.879326633731583, -1.2746840149037346, -3.4218595519485864, -3.4218595519485864]]]