[[[0.3206178388784276, 1.9121418926221119, -2.5603562666698267, -0.8954326001031725, 0.2647936870613853, 0.2647936870613853], [-2.9675278144723416, -5.987567418072145, 4.2000993834454405, 13.037248903198677, -8.03637241845149, -8.03637241845149], [-0.49328147015721896, -1.8326807640490834, 2.736260385415008, 1.2084055940378207, -0.3123294922360751, -0.3123294922360751], [0.3661146339121955, 0.45376615581944824, 0.3496388644174386, -0.010916992038550975, 0.32195836984415144, 0.32195836984415144], [0.39202257327362344, 1.8474048668657719, -2.602544193233976, -1.0445813760638587, 0.3198602146871974, 0.3198602146871974], [0.5775106121851887, 0.5532650260030637, 0.3764483435210161, 0.3522153829338847, 0.09444230578023866, 0.09444230578023866], [2.209383352037199, 4.1686877972696195, -3.1491402239255217, -9.077525928527393, 5.807567221855885, 5.807567221855885], [0.012408232387783776, -0.6983034796367741, 0.44498653694580464, 0.9043513542803127, -0.009078816102282042, -0.009078816102282042], [0.46522617922964704, 0.32749824470595773, 0.20166197190748344, 0.16986254796184055, 0.14857554943276519, 0.14857554943276519], [0.4003818246197751, 0.4302295192292642, 0.2534688860660188, 0.13776319703676743, 0.08345436249267184, 0.08345436249267184]], [[3.110600414965328, -2.0257052488642504, -4.423416007254749, -0.4379396773407876, 3.742922199834981, -0.5090314578845699, 1.8747647537154088, -1.7511386471337629, -0.5534257574930828, -0.3922939650909822, -0.35949818994704075, -0.35949818994704075], [-4.719252551287374, -10.402037642483874, 4.8931542685572476, -0.6636013576304695, -4.755832060564224, -0.76163702876551, 6.277987365770259, -0.24345076825062192, -0.44131681751895857, -0.3940277584242492, -0.5113589672045524, -0.5113589672045524], [-0.7500013622008398, 9.71652626179437, 0.6175013264447938, -0.26430661956622115, -0.9773655279393868, -0.7280487552840625, -7.7568857525654735, 0.6990849860890566, -0.25288550683960154, -0.2497011248448987, -0.5698184398994159, -0.5698184398994159]]]