[[[-0.6340547461281342, -2.0141815876444165, 2.9979649183611574, 1.67093429104064, 0.10485658548989897, 0.10485658548989897], [0.08367589637577864, 1.159359450590051, -1.4636621021334075, -0.23927595423206016, 0.3155641394728703, 0.3155641394728703], [0.5879715164593625, 0.3937134384377137, 0.6060620330499958, 0.3795273720130007, 0.5288149043027855, 0.5288149043027855], [0.6461038029411574, 0.4789583101847741, 0.3750245453100932, 0.4754856414638913, 0.18998042933222994, 0.18998042933222994], [-4.566511090971534, -6.498528599790703, 6.9524597491455955, 8.630800022091655, -5.668883517421955, -5.668883517421955], [0.6943073459956256, 0.48971247569201587, 0.4471299503369983, 0.2623412704586923, 0.2712985730755419, 0.2712985730755419], [-2.4428211022647925, -2.9859204909550527, 3.516165342607936, 4.19268809948772, -2.583117249550161, -2.583117249550161], [-0.7039188890620932, -1.8134198491770208, 3.025941388004037, 1.4388422044546099, -0.03142105069359344, -0.03142105069359344], [0.7102587599361546, 0.2639743496438753, 0.5656536596239045, 0.05279204641242142, 0.08193900420458723, 0.08193900420458723]], [[-5.731350167825697, 1.5751808529234363, 0.9425807501286211, 0.9859774407881478, -0.756237819875702, 1.1410876672502563, -0.31054094039014546, -5.435192341081668, 0.5748989129077131, 0.9881335899707909, 0.9881335899707909], [6.024658803551597, -1.9383433191747366, -0.8988990558930356, -0.6630033610438334, -10.43163471027318, -0.8675332018211817, -4.693587267406863, 5.46509673651381, -0.7603807611567844, -1.0827752534105093, -1.0827752534105093], [0.08973698918198955, -1.0059237281568503, -1.517979394355438, -1.509366803496324, 10.759878027394434, -1.5726886411631085, 4.442909393074343, 0.1703315848346564, -1.5088405487519283, -1.3962615781075232, -1.3962615781075232]]]