[[[0.5316655314241149, 0.594073081201273, 0.3735496766565742, 0.48262108689760097, 0.507288200704, 0.507288200704], [1.8644026032437644, 3.258875455051777, -2.6391586729529966, -7.036111431054795, 4.499357589652964, 4.499357589652964], [-0.6457368164368571, -1.978228268506346, 3.0618111509422654, 1.677405526387691, -0.3804438129548204, -0.3804438129548204], [0.4502087714243751, 1.9360987535055911, -2.7337205905428985, -1.2871660845253865, 0.3703806110578614, 0.3703806110578614], [0.6790418019972304, 0.2343924584886671, 0.10152810712204835, 0.42735444365852426, 0.09531549151679528, 0.09531549151679528], [-3.1931122687406495, -6.52132699357352, 4.543248338599175, 14.235216502602148, -8.940170811542703, -8.940170811542703], [0.5299618886098333, 0.25321488540342874, 0.5005742152892141, 0.2634220084134864, 0.4770537168023165, 0.4770537168023165]], [[0.1917802270429989, 1.3831078962427081, -6.858548559068834, 4.706861972184191, -0.36778109758631233, -1.9381853603165675, -0.355704920495736, 0.24621005732271428, 0.24621005732271428], [-0.8578417133968624, 4.278236001980834, 7.109224354427714, -6.195427766908337, -1.0805833221028047, -11.499537346138762, -0.8227164079962486, -1.0312162732207535, -1.0312162732207535], [-1.102199145465962, -6.460372794460612, 1.5799902372855759, -1.954427649859153, -0.6304366584677179, 10.824342314811643, -0.8066263022801718, -0.946643246041509, -0.946643246041509]]]