[[[-12.288710369605813, -0.1097319605431015, 2.65671707652532, 2.65671707652532], [6.582058738931823, -1.7575092125644913, -4.460367196146069, -4.460367196146069], [-0.2758415218592052, -0.8881632345005908, 0.3664462036180976, 0.3664462036180976], [-10.303141767967977, 11.366528559814313, -3.773517335293935, -3.773517335293935], [6.989180453375758, -7.2525535385193916, -3.2938046205755915, -3.2938046205755915], [9.934228714480343, 2.668057019575505, -8.868292962643086, -8.868292962643086], [4.595719121517762, -8.179812894802126, -1.0427810173224414, -1.0427810173224414], [9.078106837922121, -2.586771426231897, -5.89950228397932, -5.89950228397932], [1.5999205440829003, 15.801516166099137, -12.8285121317435, -12.8285121317435], [3.7054590776289618, 11.313436985482378, -4.6081322893965915, -4.6081322893965915]], [[31.262037547760645, 5.954658139924996, -0.2787267119582553, 25.610691976658195, 11.276980421491073, 40.94309780655638, 9.187790877397449, 8.765321548374116, 22.174599838043534, -43.13766139938494, -0.7076807951424886, -0.7076807951424886]]]