[[[10.854332428882234, 7.723999362953684, -13.114383630536956, -13.114383630536956], [11.37665637197011, 3.778714109969029, -4.766571173036129, -4.766571173036129], [-2.748788333512654, -4.266740275659388, 1.7235609413472897, 1.7235609413472897], [-10.786027176207247, 13.673996070301495, -6.66100124736744, -6.66100124736744], [3.04488550907333, 12.338893914659591, -10.197953888048957, -10.197953888048957], [7.2827326668623495, -1.9210564359496094, -5.126089331968765, -5.126089331968765], [-2.313047437330859, -2.2774988266928458, 0.7282243908386027, 0.7282243908386027], [9.547065577920884, -10.47243823538296, -2.5325890239950826, -2.5325890239950826], [-3.1880871175846126, -8.71428626963076, 3.2391893524272897, 3.2391893524272897], [7.3338154112005745, 2.708458975239194, -7.648941149376449, -7.648941149376449]], [[14.930259577424112, -48.95570355276747, 5.07312604483718, 19.519615855284933, 37.06823797254961, 6.661077111947374, 3.226702744138776, 42.55431400979804, 9.496815494833454, 7.609723369782677, 2.276693496651844, 2.276693496651844]]]