[[[8.820458561257063, 7.04785284759951, -10.000424681755849, -10.000424681755849], [1.7812375328752648, -1.3979908566832764, -1.0818630772947075, -1.0818630772947075], [-11.686900144802012, 3.9665182892854727, 1.1536570049634292, 1.1536570049634292], [1.3339477047317232, -0.7974030517645829, -0.8266604485659067, -0.8266604485659067], [1.6616474616208907, -2.1728417533081172, -0.8504382510463224, -0.8504382510463224], [-6.126882861996663, 6.403485132554015, -2.4052512209602397, -2.4052512209602397], [1.0093161566084472, -0.12521183910452074, -0.9556087898938633, -0.9556087898938633], [1.2457594841142403, -1.8928523436129474, -0.5845818817993428, -0.5845818817993428], [-6.16411635475197, 4.989307841260934, -1.3001590843344761, -1.3001590843344761], [-0.8117311317379263, 10.664614922755439, -2.9215599819869214, -2.9215599819869214]], [[50.509710541413114, 2.5930768616928015, 43.723199235124675, 2.0561990894347484, 2.980666734364485, 7.774964300269393, 1.6684119997985574, 2.584617697436127, 6.28182686761278, -51.86603671715434, 1.8927058636339347, 1.8927058636339347]]]