[[[-2.2890978588763997, 11.034079698290416, -1.6256030786171536, -1.6256030786171536], [16.397643501177118, -2.035703030211581, -11.649662214087185, -11.649662214087185], [-2.3678691112807138, -8.051713313408595, 2.8242034088914196, 2.8242034088914196], [1.8871680661227537, 16.95458926524726, -14.159545207593847, -14.159545207593847], [3.5331574729996396, -0.1865197248946958, -3.5016101779828244, -3.5016101779828244], [-10.231557655410972, 8.840793479480137, -3.322592290317052, -3.322592290317052], [-14.494287130544025, 1.886571055022254, 2.8635396021661825, 2.8635396021661825], [-2.0109846403526683, -3.5198436259043415, 0.7792760608087907, 0.7792760608087907], [-5.83228473655004, -9.187415158955469, 4.304743293959117, 4.304743293959117], [8.862765571239493, 8.858081276329806, -11.015197677559597, -11.015197677559597]], [[-44.53605819166572, 20.904615996566626, 8.32518821290951, 20.548994200475192, 2.7065369010912734, 13.695476434679316, 41.501186996455296, 3.8079681104930763, 11.174675689883687, 31.97798044516815, -1.985665091496394, -1.985665091496394]]]