[[[2.1256424513425443, -5.1645051972308345, -1.8478328068756535, -1.8478328068756535], [-7.790971764235119, 9.15258370795962, -3.7273923809954015, -3.7273923809954015], [-10.170979596432849, 3.9840236137421, 0.7939801461632304, 0.7939801461632304], [0.1861388796327591, -3.9950325760519094, -1.4620427187631149, -1.4620427187631149], [1.8884357752963994, 9.996371616985453, -3.9829007505354577, -3.9829007505354577], [4.628044039673021, -4.786366553289719, -3.2275625855591206, -3.2275625855591206], [3.906013014198254, -9.802186354864338, -0.36069566078004756, -0.36069566078004756], [-0.06002056603977491, -6.026456805979815, -0.09515066518358037, -0.09515066518358037], [1.9531273208759656, -8.723878565709096, 0.5377414107466763, 0.5377414107466763], [9.393259426926614, 5.031538342554476, -9.133676438647385, -9.133676438647385]], [[3.3773575649671037, 21.96019525883846, 35.352071768939375, 2.238110183736934, -43.760084171121825, 4.258798274534678, 7.447878833880627, 3.954240184837105, 6.16402373703175, 52.63060735998212, -3.694620685752115, -3.694620685752115]]]