[[[11.844176377297915, 13.806470474049766, -18.252076565943188, -18.252076565943188], [-2.8648341427484394, -19.47498804842521, 5.421318141068973, 5.421318141068973], [9.493976316536218, 16.854871950917698, -14.340321617635254, -14.340321617635254], [19.4267675726996, -7.878279711935508, -12.48415517291993, -12.48415517291993], [-16.334650775925418, -5.947188839435361, 6.457173087531352, 6.457173087531352], [-12.483559988418884, 18.67027800087659, -9.891004278250895, -9.891004278250895], [-17.544116336238456, -2.24349036161667, 4.837449793011913, 4.837449793011913], [-1.374899133034052, -0.20513968581086076, -2.549850873686216, -2.549850873686216], [-4.199750311785109, 13.385970533258744, -1.04061504704737, -1.04061504704737], [-7.224419707496508, 0.8122806558613116, 0.29788409082548933, 0.29788409082548933]], [[29.91332866226287, 17.190237249914933, 29.166780969349052, 24.359683512274653, 17.944640910726363, 25.697856669429324, 43.91871387974295, 1.304470473828648, -47.787328078686784, 5.264224285163885, -3.5450979206068487, -3.5450979206068487]]]