[[[28.357997536567968, -48.42878163960305, -7.174088090412943, -7.174088090412943], [-53.70206711846865, -16.892860150039713, 17.55309013762638, 17.55309013762638], [-47.21010003503635, 30.48566141768604, -8.924599301105834, -8.924599301105834], [-40.9570960210897, -16.12591174043926, 20.9008211209024, 20.9008211209024], [-14.010152936686934, -32.48701778662554, 32.16723546900764, 32.16723546900764], [-39.23325111847808, -30.610771827386117, 50.12353112356368, 50.12353112356368], [-19.74089216001737, 59.52793202241661, -39.619063567831695, -39.619063567831695], [-46.07606419554943, -28.55806440587428, 48.18776243665369, 48.18776243665369], [-66.27628104088839, 9.76499374535897, 50.50386550067371, 50.50386550067371], [-17.986505615285527, -45.47159361757381, 16.16778782691492, 16.16778782691492]], [[71.71281570069762, 41.285200634605346, 42.349508638174775, 31.042275744554647, -12.47613305280491, -17.795807851815393, 61.55502634529203, -39.894609037600894, -32.57928974024298, 45.51360046129586, 37.23198594224399, 37.23198594224399]]]