[[[-41.68501573890018, -28.63940885311145, 46.34416417314572, 46.34416417314572], [24.33756930375647, -29.46146264296175, -9.063459391703239, -9.063459391703239], [-16.65388399380455, 59.066865676008206, -40.30638180400323, -40.30638180400323], [-10.409567159561036, -56.473486214547485, 49.84322855244563, 49.84322855244563], [-50.25768209812356, -7.781983841727452, 39.13153045375005, 39.13153045375005], [-53.876143876102034, -27.75900266606863, 21.994714465652457, 21.994714465652457], [-65.70429795268781, -16.41969567869005, 62.93399834611457, 62.93399834611457], [-50.8625733652428, 30.498373361184964, -7.554812493567186, -7.554812493567186], [-3.7907201721862394, -54.07128403412691, 13.20936560287247, 13.20936560287247], [-32.68961391942147, -12.702943403238123, 16.98564048169849, 16.98564048169849]], [[-31.915592287734256, 62.17606696544808, 53.90908892180632, -29.508941652685078, -25.39668129494673, 50.040257660801075, -24.144988063502993, 49.00132808398216, 51.08716287798814, 33.09383547893016, 32.838553858493455, 32.838553858493455]]]