[[[-46.20135369836581, -10.976718468922936, 26.669696646394325, 26.669696646394325], [-38.50256367416654, -41.66621353232571, 51.60505093850977, 51.60505093850977], [43.55203322857787, -31.701773892280904, -21.353623461845224, -21.353623461845224], [-52.7665190755768, 54.1640446242111, -23.08809714968532, -23.08809714968532], [-11.056754706312429, -49.62663172099096, 16.096070137573854, 16.096070137573854], [-53.884813641157024, -10.895612413746091, 16.136030586360896, 16.136030586360896], [-10.138520262077735, 0.01757644879016732, 1.5103426487784781, 1.5103426487784781], [8.756617795317064, -36.571834256526735, 23.54488209663868, 23.54488209663868], [-57.066888725849154, -31.66637349274548, 64.48514400798176, 64.48514400798176], [-45.98262126308036, 9.818398840610687, 19.16537770098386, 19.16537770098386]], [[-14.608889565341668, -36.38213866477198, 70.00379028636301, 50.849612092849775, 80.95755422886249, 78.58623747103543, 5.829311740539526, -29.548281410581957, -32.24878825639061, 2.9202317712967427, 31.45930940273746, 31.45930940273746]]]