[[[-16.010335652640933, -4.075756482210106, 4.581507719803897, 4.581507719803897], [-6.614048707117821, 18.176726718425854, -11.725150871500194, -11.725150871500194], [-14.034539756382566, 6.303489638929692, -0.40968213817122084, -0.40968213817122084], [-11.272624440762124, -5.5833023309768, 4.239519160536328, 4.239519160536328], [1.6634878286255312, 15.078158641313285, -4.435560066641283, -4.435560066641283], [15.110749950729298, -11.921351240806025, -6.928057220770913, -6.928057220770913], [2.652357670629607, 14.267369424059499, -12.567637707641053, -12.567637707641053], [-10.319109341314467, -7.664083850991547, 4.874494956043378, 4.874494956043378], [20.63742273922538, 10.01458000909659, -22.870921143898542, -22.870921143898542], [17.891609094652782, 9.767847811070556, -16.22601820256365, -16.22601820256365]], [[15.813343204329032, 22.6077937350076, 44.05655972794251, 12.230876460105536, -48.83568155314683, 26.720542619400344, 19.51127896378028, 12.872539539454259, 29.46552340939028, 23.61087556914781, -0.6381811047146472, -0.6381811047146472]]]