[[[10.221619960466407, -4.005063641248281, -6.768006651631989, -6.768006651631989], [-4.3649849679293515, 0.5359273747583204, 0.6322622685660312, 0.6322622685660312], [-18.4628227170088, 3.730103897442263, 2.165863554862109, 2.165863554862109], [2.026341485072551, -0.7599371121424963, -3.7755822238735957, -3.7755822238735957], [22.14245086565331, 2.091379529843049, -17.814525192036356, -17.814525192036356], [-1.0813781004118888, 17.89313244582584, -13.4957560467353, -13.4957560467353], [15.820399707612253, -10.08196175814175, -8.285180998739037, -8.285180998739037], [6.7623760665473265, 13.736225838664408, -13.681229768542439, -13.681229768542439], [2.2815865067356986, 18.353453898873976, -5.6551418796575135, -5.6551418796575135], [-12.256550297868257, -4.912951401471078, 4.69667890165467, 4.69667890165467]], [[9.597859605917838, 4.416322087885116, 44.955245370469996, 2.1941855439101197, 27.918904493768075, 35.26968468863015, 21.904897883264518, 23.438695611659888, -48.176914949592934, 15.07910073572409, 0.5209551180567128, 0.5209551180567128]]]