[[[-5.745373754297028, -19.590894772722756, 7.021595369639753, 7.021595369639753], [14.677927211053756, 2.108516151897322, -12.399851710656622, -12.399851710656622], [4.90024976298678, -11.666913236515608, 0.5688007468211852, 0.5688007468211852], [-9.734577775693676, 16.72883471431627, -9.353930795353378, -9.353930795353378], [13.642664295829286, -3.9239891576370747, -1.4577588929720524, -1.4577588929720524], [15.568335032175236, -11.027065599248518, -7.186841936911176, -7.186841936911176], [-2.056056511399631, 10.264889012040166, -6.791018329641962, -6.791018329641962], [8.09998643806863, 11.41544113773137, -13.961291769702802, -13.961291769702802], [21.43793811028388, 11.362994206878128, -9.868898639579434, -9.868898639579434], [10.990170784349326, 12.371127313905045, -15.242749623320446, -15.242749623320446]], [[23.593930342930374, 17.419238059194026, 41.087278731987865, 24.59173488661888, -44.295572354961756, 19.86346906464814, 12.544313593783691, 26.474473073124926, -25.334767844674356, 28.832087541663686, 11.37572641645625, 11.37572641645625]]]