[[[17.967218041262466, 21.238190971759348, -27.083417587888334, -27.083417587888334], [-5.691662578192034, -13.06490712557228, 4.890797471126354, 4.890797471126354], [-20.257785045798705, 8.865819246598488, -1.1019721745008668, -1.1019721745008668], [18.853898959149433, 13.335473970259855, -9.431834305606136, -9.431834305606136], [27.64183611829003, 5.6737776286258566, -23.9658769451975, -23.9658769451975], [8.575077889423461, -28.066921128592686, 1.7887287624029171, 1.7887287624029171], [23.555406672489095, -20.026722455794786, -9.052165146709909, -9.052165146709909], [-6.111951578954994, -14.65181786136462, 5.460207624705407, 5.460207624705407], [-0.4701237079488126, 25.789579747515198, -20.54107779658914, -20.54107779658914], [-16.425242646870842, 19.29572737400344, -8.301128712570694, -8.301128712570694]], [[45.118620508231885, 14.047557512983118, 43.79690806103624, -67.79021068095969, 33.32859768262496, 30.005261297313755, 41.313709512831615, 16.302943723416693, 37.44801072743186, 40.23013282621682, -2.9717055802189387, -2.9717055802189387]]]