[[[-24.12591468323979, 19.316140042489735, -7.297732049844219, -7.297732049844219], [30.37304261624414, 15.608984790841006, -33.81034238373076, -33.81034238373076], [23.186536807430763, -16.471013410893942, -11.854240914803439, -11.854240914803439], [28.570873534344017, 8.589068221503155, -9.022376043474095, -9.022376043474095], [-9.826964933253853, -3.7722829478194773, 3.6403753610641867, 3.6403753610641867], [5.545338832164766, 25.631578459038696, -24.22749631822159, -24.22749631822159], [-7.001730874582712, -4.36843183100284, 2.850896594015386, 2.850896594015386], [-10.084184622462582, 24.444920091881052, -15.105036763818232, -15.105036763818232], [-5.7303469472594415, -31.86858486709524, 8.99127824703577, 8.99127824703577], [18.636485633305533, 19.95416643569351, -25.76529714810298, -25.76529714810298]], [[35.57650852448553, 31.725949849831846, 58.341797795143236, -54.97276147895927, 9.841111551363294, 23.241118185083593, 7.611967845208149, 31.100451254587007, 54.21288167326352, 24.72593729939511, 4.2984256857326955, 4.2984256857326955]]]