[[[-48.25767935407074, -23.895624650927243, 19.65963379369341, 19.65963379369341], [2.0840661080238134, -3.70939655397327, -1.3815698720708836, -1.3815698720708836], [-6.406976349847127, -47.114788867155276, 40.232865159209474, 40.232865159209474], [29.537180331341602, -32.96917807422061, -9.817625326281386, -9.817625326281386], [-39.36520158714641, -33.52357786863587, 49.749127846197275, 49.749127846197275], [-37.8875277591175, -5.081229946924712, 32.08557723959736, 32.08557723959736], [-38.30782851788683, 5.124681567286946, 16.317120499511045, 16.317120499511045], [-1.4597775886882751, -26.663689505451927, 4.91958955873489, 4.91958955873489], [7.533204382970127, -37.16737866076565, 5.582178000884742, 5.582178000884742], [-45.475693459833806, 28.658844103989907, -8.304801134137138, -8.304801134137138]], [[46.582979781967644, 2.283088763688465, -44.59223097761575, 42.6870850791081, -39.193704520113, -47.174345122237504, 40.27645626652355, 20.426542670168903, 38.09214311468307, 46.86207063585904, 47.92657517357836, 47.92657517357836]]]