[[[-22.46094778208716, -17.54316604677772, 26.627983681117236, 26.627983681117236], [13.480643595509786, -30.167630033794513, -0.10097961497835692, -0.10097961497835692], [-27.34149973061045, 30.49144295577089, -12.70449989086863, -12.70449989086863], [-4.736511570741141, -33.03467560380319, 20.583297542021995, 20.583297542021995], [0.42160447657997546, -0.6785711040837433, -2.698019486052572, -2.698019486052572], [0.42478464457302184, -0.6786487602786566, -2.7028970893212922, -2.7028970893212922], [0.40153246117557245, -0.6780229295491261, -2.6704336369035024, -2.6704336369035024], [-21.878553124834102, -16.66112133679765, 24.907260037048637, 24.907260037048637], [-34.239145482213786, 7.283530293268391, 13.203204592158976, 13.203204592158976], [-43.29393101473186, -23.33775725964246, 19.18035801399705, 19.18035801399705]], [[-47.944487331941936, 88.59022599726114, 68.15690668173133, 16.262310831688392, -0.9250137649414891, -0.9318267957324187, -0.8868104829315029, -56.00514733426979, 36.31767604890202, 51.41825192724271, 3.3759325708907837, 3.3759325708907837]]]