[[[20.31998697798434, -46.63243687276827, 28.76471614118147, 28.76471614118147], [-10.809899105213146, -26.184121553169867, 10.88615918622863, 10.88615918622863], [-34.17399774094337, -34.38570000418369, 49.286135778715625, 49.286135778715625], [-34.55118983658776, -11.673804893693847, 13.196666913173868, 13.196666913173868], [0.9126944679795596, -10.72515451891321, 1.2433232483672267, 1.2433232483672267], [-38.3446794446684, -31.385152395597185, 45.685915809791936, 45.685915809791936], [21.972930135300015, -28.720495409288542, -1.397316408406725, -1.397316408406725], [-41.02882834289363, 6.6498115802626145, 4.552589789510931, 4.552589789510931], [-15.330091287611513, -31.290742068847443, 20.83886578174632, 20.83886578174632], [30.29017355359579, -30.300816115343046, -13.322404356868022, -13.322404356868022]], [[-66.54073608139274, 50.36568784487785, -25.868862499511607, 33.9703369365417, 6.6693695457834385, -38.911107063786645, 20.26392441646465, 46.058223985823524, -9.862221455902715, 49.21849422116953, 70.953528468116, 70.953528468116]]]