[[[-30.021585612027412, -31.019512463199344, 37.72554129590793, 37.72554129590793], [-22.45025450500947, 3.4191882587459554, 1.9969158561184313, 1.9969158561184313], [-1.342903571222899, -47.29539470510031, 38.43364847333492, 38.43364847333492], [-52.54384847174222, -19.223645152829153, 18.27951554246736, 18.27951554246736], [23.78325071095986, -24.157919141106422, -10.056097728986874, -10.056097728986874], [-49.30534795063025, 40.112683431643525, -15.070920418599451, -15.070920418599451], [-23.5473503491081, -23.33960121994259, 22.89618684149981, 22.89618684149981], [-28.625206377329576, -7.3820559998021675, 13.588201793089471, 13.588201793089471], [-57.46943553839805, -25.941418922554316, 61.13230528754158, 61.13230528754158], [-6.6356682220703, -36.98470335306221, 10.821776223910293, 10.821776223910293]], [[-20.948374381671087, 14.272940161730382, -37.02778187228418, 43.46397775035154, 62.21113089426459, 39.772373697726245, -13.663653962464972, 22.52155332861863, -34.71871557776026, 56.45362950360501, 38.7700970609714, 38.7700970609714]]]