[[[2.171978199752729, -24.441996117931737, 5.125668111350707, 5.125668111350707], [-22.427960478770505, -4.044177377642781, 7.851841392834486, 7.851841392834486], [-16.29659827102294, -2.8133750478949757, 13.060976102031912, 13.060976102031912], [23.009834387399387, 12.981370404731368, -24.760658244416266, -24.760658244416266], [-0.8771483067796856, -1.8254590455332589, 0.1060840505050548, 0.1060840505050548], [12.995633956265337, -19.0775433772495, -2.6479374516388585, -2.6479374516388585], [7.2712478302585435, -31.119823708239604, 21.64440372966171, 21.64440372966171], [-22.620807702882285, -23.744989461095166, 14.274515123505296, 14.274515123505296], [-11.374203280889173, -13.027621880378481, 17.943757490345508, 17.943757490345508], [-13.637024793253902, 15.431882371048692, -5.589180449294681, -5.589180449294681]], [[22.633288043047273, 49.510287557529175, -18.897310310620266, 65.06692365988569, -1.4180159886092996, 69.73494280647067, -46.24949548635739, 42.928852033332554, -16.420143235938465, 51.08955960034051, -3.6407213610416904, -3.6407213610416904]]]