[[[26.86286384678328, -6.76710816069707, -17.216348854225117, -17.216348854225117], [-1.0762087508078855, 31.82106184060161, -19.888858083993938, -19.888858083993938], [41.2278511021541, 11.731033475072117, -14.570234198820696, -14.570234198820696], [3.1705558102078233, -32.351425265262456, 5.626626161589333, 5.626626161589333], [1.9356274457184248, -0.32250992025654684, 0.48373720274465154, 0.48373720274465154], [1.2744053681626017, 0.7049073341134455, 4.800407876455073, 4.800407876455073], [-3.307196178687738, -33.18281416313982, 28.790326350074196, 28.790326350074196], [24.13226563585388, 3.3363513944348084, -19.643657395237405, -19.643657395237405], [-7.58653742783603, -17.928752099657697, 8.441116094136401, 8.441116094136401], [25.972186942549673, -12.360996260492207, 1.2871697243977533, 1.2871697243977533]], [[61.63332712515798, 45.56541340694015, -46.45911119724822, 45.55772419523943, 3.645007494366316, 21.14445243574787, -46.20869337815983, 31.640764930095397, 47.805516962754616, -43.546577153273475, 29.20953076024834, 29.20953076024834]]]