[[[-6.918201082670746, 26.376713662068106, -5.422438521596411, -5.422438521596411], [-1.5472287360899624, 27.72362612102811, -20.721237936146665, -20.721237936146665], [14.886206646845851, -26.44318462332499, 14.352294678347235, 14.352294678347235], [-17.29075143785324, -2.883390943334206, 6.650070988320833, 6.650070988320833], [5.19999624339832, -28.18233135120774, 2.620153775865829, 2.620153775865829], [-6.322126440957207, -5.752371711053821, 3.1684056252069066, 3.1684056252069066], [37.241660470009776, 10.658665392312082, -35.215486821476624, -35.215486821476624], [-28.70301214413339, -6.603327907527413, 21.67898807035214, 21.67898807035214], [-7.705359393463478, -7.041687874750856, 4.029736763160063, 4.029736763160063], [-24.085762532706205, -2.3742284248820025, 6.621018713383068, 6.621018713383068]], [[-39.63360845454793, 58.90775267153545, -35.275658865132954, 23.199099626206714, 53.50715942843231, 8.204528204252274, 54.536601454761275, -34.35722720362691, 10.455759536218217, 63.373150438809354, 25.249287726252984, 25.249287726252984]]]