[[[6.754073201695597, -32.6123929973745, 22.487581596706097, 22.487581596706097], [7.295104594500022, 12.227169807511139, -14.231775894872172, -14.231775894872172], [15.813146526511202, 6.770926215190803, -16.22654310761703, -16.22654310761703], [-20.146488693862157, 7.137010361025143, 0.9815328847785595, 0.9815328847785595], [-14.300769918749518, 31.778049970844542, -7.34173982821165, -7.34173982821165], [-1.1495541770803557, 10.681386458621411, -7.639128800686772, -7.639128800686772], [24.819031595569403, 2.318012515385719, -18.46845968567318, -18.46845968567318], [28.02711506296774, -12.965882127294263, -16.530928845629095, -16.530928845629095], [32.72979303943532, 2.266291198037873, -8.780602873102934, -8.780602873102934], [-2.9985345106745847, -22.763023978417763, 6.987306673498421, 6.987306673498421]], [[-58.7857170641601, 14.284071852781212, 18.109270643855588, 19.158825889340708, 15.936155945192587, 8.742305323110786, 47.61641808784777, 36.71347161496746, -54.428305066190944, 94.56475161688296, 29.34630897707028, 29.34630897707028]]]