[[[-36.157199844130204, -22.536493939917616, 39.535769622794106, 39.535769622794106], [20.815351539247313, -30.3421787014623, -4.19672141528589, -4.19672141528589], [-21.827785794733924, -35.527630280300905, 33.288461871784875, 33.288461871784875], [-50.610783115998004, 14.644927741752644, 2.2057960265849674, 2.2057960265849674], [-28.152166489433483, -33.60471747453809, 18.238049667236417, 18.238049667236417], [-16.40087727299716, 10.903915887953707, 8.881881114929167, 8.881881114929167], [-25.828357129141597, 6.450317208675282, 8.76605509525553, 8.76605509525553], [-31.58845723424844, -19.57750522684501, 37.242740864552104, 37.242740864552104], [5.691251430905431, -31.256363875611857, 22.507942578369327, 22.507942578369327], [-1.5540298358033573, -0.9513869300140524, -2.1374981665059916, -2.1374981665059916]], [[-32.572486368048935, 92.45066867652426, -44.216229163740756, 65.40424117760101, 67.87338793717807, -7.794984305785822, 32.44588384582884, -21.70027939783323, -22.126189967233977, 0.48593964983994276, 34.5295358592376, 34.5295358592376]]]