[[[-46.01721032735324, -10.14963370970373, 13.91951918310945, 13.91951918310945], [-0.31510359829158224, -14.989952005492336, 2.011230725019102, 2.011230725019102], [12.380763351851988, -34.29667395766992, 18.797212151501547, 18.797212151501547], [16.67494525666218, -47.04646958513905, 30.784847990450867, 30.784847990450867], [28.97217395069567, -30.111816669207936, -11.103999296932775, -11.103999296932775], [-14.612827546230344, -43.939699021047005, 14.918020539047184, 14.918020539047184], [-2.9819240911668388, -5.775186540667322, -0.4023675364745717, -0.4023675364745717], [-39.23890283061751, -14.937458043698278, 39.23990112223119, 39.23990112223119], [-36.268894494376816, -9.038236559976813, 27.809826688243906, 27.809826688243906], [-28.917152137826132, -27.566213987354395, 27.939303067656915, 27.939303067656915]], [[51.83250637526835, 8.774224468361673, -37.02069739629833, -45.63513868448447, 39.796295596848694, 50.00028931462278, 2.7360633878778375, -42.57196943070196, -37.43228298121813, 29.85500143752479, 86.03914458878607, 86.03914458878607]]]