[[[19.14783455390685, -23.884872686591446, -5.681482832442331, -5.681482832442331], [-0.6793836699882879, -3.5355428585011017, -1.5486887183842042, -1.5486887183842042], [-36.53021093078866, 11.93082265217084, 0.5865951262250403, 0.5865951262250403], [2.1450317074118797, -24.29837749509019, 17.682632925100872, 17.682632925100872], [-0.6090081671389582, -1.5560040918310876, -2.0617140557559086, -2.0617140557559086], [4.96487094671185, -11.849871814822329, 1.2887310807794359, 1.2887310807794359], [-24.4449990382527, -31.41693353359482, 29.07629276153983, 29.07629276153983], [6.2590469838561305, -53.56303943587037, 40.04427723285493, 40.04427723285493], [-33.99390511145459, -15.461128625768149, 35.143444014004864, 35.143444014004864], [-23.612986091798376, -29.335871444378764, 15.886178879984271, 15.886178879984271]], [[66.57939833469749, -1.1428254316662778, 62.34984691983439, -14.131329266946217, -0.8337725406193691, -8.432502034217148, 1.958744053413304, -45.73788895213406, -59.728291720145606, 62.95176279695936, 64.18688633919153, 64.18688633919153]]]