[[[-1.4078467479757752, -8.501922396125465, 1.4989801177536466, 1.4989801177536466], [-28.59918822129799, -24.165950762645682, 27.2747989682324, 27.2747989682324], [26.975066557969622, -15.306471539391294, -15.012071683643622, -15.012071683643622], [19.262479962842146, -17.1662229508489, -6.986654062201471, -6.986654062201471], [10.893585341777095, -50.58289832071347, 11.483774800217965, 11.483774800217965], [-15.102314633853826, -35.65754278950483, 13.579947581337597, 13.579947581337597], [9.602083388032533, -50.82421931000098, 35.63805435266515, 35.63805435266515], [-40.8265540475563, -1.1371465294230565, 9.852515517650422, 9.852515517650422], [-42.89000063021201, -20.174443328490987, 44.72777308880527, 44.72777308880527], [-3.118759414756536, -28.938121080246315, 19.77915955166946, 19.77915955166946]], [[5.1971126437154025, 10.233979360022316, 33.199330041406235, 23.901410494177085, 30.91455600205961, 42.227052838833394, -59.16238501449749, 75.25550820749307, -60.368659911904516, -25.90749202183185, 63.13779449057755, 63.13779449057755]]]