[[[15.386703696936884, 11.383062575688804, -18.512629176438583, -18.512629176438583], [8.75150243891713, -27.85284095435581, 4.763132685154134, 4.763132685154134], [-22.737655452772874, 23.073978620728028, -7.326603604923891, -7.326603604923891], [-0.033635824574955, -1.8287099768034367, -2.01891472703119, -2.01891472703119], [-27.557719324864895, -30.361288964673708, 18.121013268869966, 18.121013268869966], [22.07535749266445, -27.437173905700213, -6.842724179825337, -6.842724179825337], [4.879319790635641, -4.310641011671042, -2.9768061722996806, -2.9768061722996806], [-40.70553615265482, -3.0404615720485944, 11.312198642054653, 11.312198642054653], [15.31000477290959, -49.90248908656551, 32.90318597889896, 32.90318597889896], [-32.89154291700626, -20.90864326635007, 36.552494755173505, 36.552494755173505]], [[16.53596913354656, 41.31283543775978, 48.63038916771633, -0.4902568842772331, 47.85380251489649, 49.72371209492836, 3.242292218311265, 44.927982075013176, -44.10790723092894, -75.86304303969037, 32.050505243942176, 32.050505243942176]]]